epoch,W1[0],W1[1],W1[2],W1[3],W1[4],W1[5],W1[6],W1[7],W1[8],W1[9],W1[10],W1[11],W1[12],W1[13],W1[14],W1[15],W1[16],W1[17],W1[18],W1[19],W2[0],W2[1],W2[2],W2[3],W2[4],W2[5],W2[6],W2[7],W2[8],W2[9]
0,0.5619884393936804,0.031745752821475966,0.3801082162733283,0.26169982045203344,-1.360261150525019,-0.07723889229110194,-1.1138782162550571,-0.5197824217995961,-0.3703124677279831,-0.05039637920025356,-1.3997442076030475,0.4683657060636559,1.1960020052007272,-1.6372756391366758,0.18108646969566822,-1.363890760017669,-0.2100049736009645,0.557947408011488,0.02529377662738158,2.021108104518948,1.6367004417960098,0.27364231668890554,1.050875796126844,-1.2168027419078296,-0.32330905843605146,0.2733404893180579,1.898181903004105,0.6786871504593893,-0.8186260141527049,1.1899031725148006
1,0.5588801895368621,0.031186033667591595,0.37799840414489955,0.2641775841893948,-1.3598341868816528,-0.07780558720646145,-1.1167629722478678,-0.5210723998876855,-0.36869742570755043,-0.05288645621784718,-1.4008576066379046,0.46807839316852606,1.1951554114032832,-1.636549621423932,0.1814499316609103,-1.3640877390168473,-0.2121414765223565,0.5572554219257139,0.026202448733326677,2.020563188703724,1.626662206292327,0.26279558948712767,1.0386539468474931,-1.2261532314603616,-0.3313854482883174,0.2645404867386337,1.8902419910588897,0.6688586671044632,-0.8282060096288533,1.1780556063478909
2,0.5556183333076168,0.030620343246971347,0.3757977310974041,0.26680520480824654,-1.3593734952731962,-0.07838360095334403,-1.1197692021087742,-0.5224077905546681,-0.36697664044353284,-0.055485954816329716,-1.4020263862365092,0.4677845322809103,1.1942606504659627,-1.63576866329201,0.18184722706954054,-1.3642905794453695,-0.21441010521257323,0.5565290095577128,0.027181122898790173,2.0199865572505105,1.6160774432640699,0.25130430756471844,1.025727765130306,-1.2360886103484467,-0.33997562640729906,0.25522445598671584,1.8818599089156598,0.6584492854071453,-0.8383945603173099,1.1655191256940258
3,0.5521956524890284,0.03005102507770611,0.37350336886075225,0.26959325059057465,-1.3588759544590523,-0.07897151280919736,-1.122900495457995,-0.5237884870245799,-0.36514200333990743,-0.058198873020937805,-1.4032540542450265,0.46748473496421344,1.1933138091765296,-1.634926786875166,0.18228277252554448,-1.3644991699717828,-0.21682339803092196,0.5557660060662373,0.028237617065962162,2.0193756579012367,1.6049073005982035,0.23911517662993978,1.0120416011450397,-1.2466591751882328,-0.34912743797809154,0.24535085446953933,1.87300067504792,0.6474103754509635,-0.8492464965304689,1.1522378785908804
4,0.5486064782713472,0.029481191518799157,0.3711137621442962,0.27255172788308835,-1.3583383925947345,-0.07956726786721043,-1.12615865552111,-0.5252132841653173,-0.36318568791491534,-0.061027884872712414,-1.4045438789072058,0.4671799507826097,1.1923108767742447,-1.6340174830559766,0.1827615883864446,-1.3647132325825289,-0.21939482553633194,0.5549643857797788,0.02938052488472132,2.0187279037034322,1.5931136109002675,0.2261734422267728,0.9975390102259579,-1.2579169789772606,-0.358891792202648,0.23487729943446062,1.863628496559856,0.6356916525446145,-0.8608194125751553,1.1381547206996088
5,0.5448477245493919,0.028914891627370445,0.3686292900953748,0.2756892366935953,-1.3577577604637998,-0.08016800905144315,-1.1295427739193566,-0.5266794361202173,-0.3611007606196615,-0.06397360401177957,-1.4058985860252935,0.46687157497827886,1.1912479105147724,-1.633033824486974,0.18328932242087298,-1.3649322593810636,-0.22213854855165924,0.5541224385834848,0.0306191162998478,2.018040799405915,1.5806611195502973,0.21242501651115364,0.9821652791289766,-1.2699139706973692,-0.36932153229670833,0.22376231894831056,1.8537081542222336,0.6232429518546598,-0.8731719985105612,1.12321354158253
6,0.540920308572817,0.028357282688558316,0.3660531424652216,0.2790117256167672,-1.357131409875296,-0.0807698893736224,-1.1330479988074578,-0.5281820932590228,-0.35888210308457785,-0.06703360047113953,-1.4073199086197379,0.4665615789194263,1.1901213019440968,-1.631968704248521,0.18387222399052666,-1.365155432444709,-0.22506895548971956,0.5532390294677004,0.03196309757481835,2.0173121425790406,1.5675207843838612,0.1978198581838132,0.965871353384927,-1.2826990042455437,-0.38046943078668705,0.2119680802405632,1.8432071704197917,0.6100170843658382,-0.8863612326661405,1.107362940438879
7,0.5368310312987165,0.027814777672670373,0.3633924348285491,0.2825207294318186,-1.3564575179118694,-0.08136788099090343,-1.136663956043151,-0.5297136162380505,-0.35652774665933706,-0.07020113889236482,-1.4088079393333133,0.466252659276175,1.188928183532724,-1.6308152696140148,0.18451703025309632,-1.3653815264861733,-0.22819987251458337,0.552313967178171,0.03342214962137899,2.016540328778231,1.5536744509368319,0.18231705529517617,0.9486196465308907,-1.2963133121309138,-0.39238493939329094,0.19946442062840242,1.8320990271129949,0.5959741720642142,-0.9004379832285857,1.0905617363278508
8,0.5325949420996106,0.027295119501025762,0.36065954951903845,0.2862109907236623,-1.355735700807397,-0.08195561466155034,-1.1403728325838909,-0.5312627946051117,-0.3540407138639144,-0.0734636467918469,-1.4103602348854998,0.46594839236741753,1.1876670200319517,-1.629567643249448,0.18523070805928787,-1.3656087984319836,-0.2315433142230426,0.5513485063646405,0.03500513555905724,2.015724793529171,1.5391211546192753,0.1658920746288426,0.9303922126529708,-1.3107840337718526,-0.40510926991195295,0.18623449393970257,1.820367699372511,0.5810878806848524,-0.9154405233991108,1.0727868171833217
9,0.5282380980046913,0.026807305313994324,0.3578736116108654,0.29006744508331184,-1.3549678508474448,-0.08252530733108888,-1.1441472365678043,-0.5328140520094025,-0.3514314101884845,-0.07680100644155927,-1.4119706392615938,0.465653363845505,1.1863384224983176,-1.6282220402303147,0.18601997646833385,-1.3658348762907941,-0.23510763448089264,0.5503459947062254,0.03671884725665215,2.01486661902909,1.5238850914595763,0.1485464979398344,0.9112015846631611,-1.326115531597808,-0.41866842434958346,0.17228220039865166,1.808013668019219,0.5653538569485292,-0.9313855548060471,1.0540436857631061
10,0.5238004136251956,0.02636125651436249,0.35506187825082125,0.2940617319345445,-1.3541591916331481,-0.0830678634721697,-1.1479481317757534,-0.5343468054823144,-0.34872047604871714,-0.08018391008968669,-1.4136278461612808,0.46537321985880814,1.1849461922310767,-1.6267783787989984,0.18689052423150296,-1.3660566730536736,-0.23889497780216762,0.5493126422544448,0.03856616859398957,2.013969310299312,1.5080248231185818,0.13032011636967586,0.8911040609521417,-1.3422786547054584,-0.4330640419216587,0.15764118053212445,1.7950612845287914,0.5488003052737618,-0.9482567012859795,1.034379589812368
11,0.519337971554604,0.025967120626268516,0.3522606376166746,0.29814871961183603,-1.353319463911779,-0.08357325580903321,-1.1517234065490205,-0.5358352549472999,-0.3459417538500521,-0.08357272441228074,-1.4153138340977196,0.46511455742162106,1.1834985290405613,-1.6252424109312122,0.1878458533523283,-1.3662703692385547,-0.24289806962171534,0.5482583234956939,0.04054361049372669,2.013039690546505,1.491642447782828,0.11130432996237315,0.8702141831402143,-1.3591989656504269,-0.4482625355563061,0.14238441198882823,1.7815667874077696,0.5314998548584052,-0.9659912573084688,1.0138981406511132
12,0.5149237815982931,0.025634130082079588,0.34951502854781474,0.3022639919377743,-1.352464016603021,-0.08403127948082212,-1.1554079183571941,-0.5372489728246929,-0.343144645467534,-0.08691752518653567,-1.4170024925753844,0.4648845520052306,1.1820092094120136,-1.623628220225099,0.18888575410105996,-1.3664715246064807,-0.2470966711976288,0.5471972198021008,0.04263837254856101,2.012088768014589,1.474890323173339,0.09165433186057165,0.8487175296338818,-1.3767462679962896,-0.4641840578449608,0.1266323439888714,1.7676253874784522,0.5135806010206643,-0.984467355347939,0.9927727418072936
13,0.5106457332261881,0.025369066749023332,0.3468771263099154,0.3063236888136534,-1.3516144095234524,-0.08443269870116457,-1.158925986298849,-0.5385546584545562,-0.34039473154717614,-0.09016005157657558,-1.4186589860554102,0.4646902365563283,1.180498368031294,-1.6219606232687105,0.19000457831449477,-1.3666553818683032,-0.2514544687603081,0.5461479936272027,0.044825441310040445,2.011132296118225,1.4579718556142816,0.07159583774230943,0.8268770979165864,-1.3947292531157365,-0.4806942440644865,0.11055632694689005,1.753374849422347,0.4952326853527164,-1.0034954400759433,0.9712542541225287
14,0.5066007185528884,0.025174596586694277,0.3444018798883776,0.31022818299778204,-1.3507980235211046,-0.08477064905467604,-1.1621970139458553,-0.5397192057833982,-0.33777136631718097,-0.09323808157557453,-1.4202405589038982,0.4645374332917411,1.1789923742550203,-1.6202766269745439,0.19118971970268242,-1.3668173920559827,-0.2559176383628888,0.5451331264869543,0.04706568203611027,2.010190640922265,1.4411327279687978,0.05142108754026836,0.8050275137794038,-1.4128998376740052,-0.4976028240768071,0.09437360864029025,1.7389924783637247,0.47670579693795045,-1.0228191708169874,0.9496671012326502
15,0.5028849276075704,0.025047972679864146,0.34214116080002793,0.3138703666551961,-1.3500462690381683,-0.08504196013621017,-1.16514399916514,-0.5407137515530381,-0.3353614370095626,-0.09609199322513469,-1.4216993621174823,0.46442951005171573,1.177522330061796,-1.6186248607246037,0.1924209347177356,-1.3669539083702753,-0.2604164918957424,0.54417716321518,0.049306169937527594,2.009287597219512,1.4246407846860112,0.03146999597919101,0.7835527270201237,-1.4309704717420808,-0.5146729422344124,0.07833144652898541,1.7246832478326672,0.458293832734216,-1.0421301741323212,0.9283891050615185
16,0.49958202222990333,0.02498068559524125,0.34013714242473886,0.31714766104201547,-1.3493913992469222,-0.08524794165796705,-1.1677032903217468,-0.5415177685018786,-0.3332497833591304,-0.09867220345224374,-1.4229873020598047,0.46436632696378616,1.1761210733343597,-1.6170621675161045,0.1936711429966689,-1.3670628823593867,-0.26487103281042707,0.5433039623936774,0.05148373916555653,2.0084480686960138,1.4087568993677624,0.012096711250267636,0.7628478270218627,-1.4486436016847166,-0.5316423329710965,0.062681456924042,1.7106595176588466,0.44030662283627836,-1.0610972653572295,0.9078149816315904
17,0.4967524243257964,0.024959400488702838,0.33841692808117163,0.319974877963377,-1.3488625722904308,-0.08539427378100126,-1.1698328312155166,-0.5421219245933137,-0.3315084750923321,-0.10094536411914888,-1.4240619759170583,0.4643438124264169,1.1748192137246138,-1.615647497989008,0.1949089481355071,-1.3671443228690947,-0.2691998153544345,0.5425335607232324,0.05353166599067597,2.00769502195456,1.3937038785275182,-0.00637165181591794,0.7432728203564881,-1.4656468427943088,-0.5482527339108948,0.047649980582069255,1.6971166056051454,0.423034259719706,-1.0794046179928,0.8883105917239493
18,0.49442709132594553,0.024967997996448117,0.3369901552031195,0.3222940824755292,-1.3484822943733905,-0.08548997868995957,-1.171516254563529,-0.5425287186344921,-0.3301881476230536,-0.10289735362315384,-1.4248919976807837,0.4643544301955927,1.173641313054235,-1.6144345545530285,0.19610239520052436,-1.3672003252213383,-0.27332984539877875,0.5418796014381815,0.055387922326893206,2.007046573197489,1.3796425912511814,-0.023672512199971466,0.7251113964928072,-1.4817637341483394,-0.5642796093909607,0.03341303733121065,1.6842110998444142,0.40671394468575134,-1.0967883237248113,0.8701706523268304
19,0.49260744782189453,0.024990044124001812,0.3358501423517687,0.3240786066546693,-1.3482643111124983,-0.08554583700848944,-1.1727617665451748,-0.5427507794286017,-0.32931397061895396,-0.10453234986486064,-1.4254600656035252,0.4643884207974784,1.1726033879222635,-1.6134654101950616,0.19722286271429731,-1.3672346502555843,-0.2772045458567292,0.5413481384218837,0.05700251240106924,2.0065141141498,1.3666619101565485,-0.03963072802691228,0.7085465969038548,-1.4968513182501728,-0.5795535967724894,0.020082924328920677,1.6720480604510823,0.3915089129636119,-1.1130607491555888,0.8535922034083057
20,0.4912706116276852,0.02501089802082722,0.33497772954192734,0.3253308432973323,-1.3482133830711667,-0.08557278990758745,-1.1735968614844112,-0.5428076327790177,-0.32888683622968057,-0.10586884071484745,-1.425763070502667,0.46443536802998564,1.1717123363937931,-1.6127669231751565,0.1982479372334401,-1.3672520233053307,-0.2807876788009931,0.5409380372756288,0.05834179893233483,2.0061019349647755,1.354783133092437,-0.05416245178738653,0.6936580105144967,-1.5108416469859223,-0.5939688671798152,0.007708400894562879,1.6606793698628852,0.3775036980650685,-1.1281175503452368,0.8386693111062449
21,0.4903773407414862,0.025018967025811276,0.3343461887542682,0.3260757486399676,-1.348326616933025,-0.08558074861643625,-1.17406117419421,-0.5427221239941338,-0.3288883494379439,-0.10693432400209471,-1.4258097554067743,0.46448557999310236,1.1709670702195076,-1.6123504584423227,0.19916266580641445,-1.3672574040411536,-0.28406295842672125,0.5406425546621457,0.059389162063555684,2.005808164568864,1.3439742925095501,-0.0672631135093963,0.6804365830117248,-1.5237306260484098,-0.6074791563211299,-0.0037148134291700233,1.6501111054442823,0.3647133763242776,-1.1419293698400086,0.8254059004610858
22,0.4898800176982146,0.025006062881243307,0.3339257350742449,0.3263528323447449,-1.3485955962155622,-0.08557796020537702,-1.174199689066382,-0.5425174369022217,-0.32928734174623353,-0.10776032823711441,-1.4256171431077425,0.4645309739767023,1.170360604576723,-1.6122141501205873,0.19995929591283662,-1.3672554206805811,-0.2870306320178687,0.5404513809420373,0.06014277269878653,2.0056264398466452,1.3341679649155205,-0.07898699070533062,0.668808471339488,-1.5355606967553446,-0.6200860286608579,-0.01422885187292966,1.6403155101512839,0.35310053868284397,-1.154524670831121,0.8137385210697786
23,0.489728989000234,0.024967113689640764,0.33368684915239444,0.32620884931808447,-1.349008582274154,-0.08557085000267912,-1.1740575861577434,-0.5422151164426663,-0.33004599189546974,-0.10837866434657444,-1.4252069173445798,0.46456542459855693,1.1698823179586533,-1.6123463890408674,0.20063605318707312,-1.3672500409599602,-0.28970280598022013,0.5403525348740856,0.060611911875459945,2.00554768870331,1.32527759119797,-0.08942562186506002,0.6586597667243985,-1.5464032283878788,-0.6318245879620995,-0.02389870685669808,1.6312434171516657,0.3425937042369585,-1.1659704540930032,0.8035608010748955
24,0.4898767463544534,0.024899558658080877,0.33360228451438595,0.32569228543522627,-1.3495523389051813,-0.08556416546799328,-1.173677015252468,-0.5418340541975915,-0.3311245457409498,-0.10881909210486328,-1.4246024801039632,0.46458471004684165,1.1695198691878825,-1.6127293885031788,0.20119556220487833,-1.367244453656481,-0.2920989212587367,0.5403337918070984,0.060813113162738894,2.005561629615619,1.3172098858061856,-0.09868958396439374,0.6498570912722436,-1.5563440345953523,-0.6427503410413435,-0.03280014694890737,1.6228346286113653,0.3331031399591502,-1.1763553348174047,0.794744307827914
25,0.4902801989030548,0.024802678173611096,0.3336480095567017,0.32484979169711775,-1.35021342936381,-0.08556125713085146,-1.173095489025157,-0.5413901815415496,-0.33248443229026803,-0.10910815886865124,-1.4238269158368406,0.4645862368229846,1.1692605780076109,-1.6133421652078888,0.20164333836596873,-1.367241091786839,-0.29424211007773454,0.5403835900260049,0.060766885300253363,2.0056578413634436,1.309872996667271,-0.10689525794641397,0.642262364017,-1.5654730686436493,-0.652928932300679,-0.04101128136253843,1.6150254046978945,0.32453253690322925,-1.185776819207853,0.7871538172754534
26,0.4909015735282648,0.024676999430870174,0.3338034380606557,0.32372422497021264,-1.350979023077561,-0.08556438625799355,-1.1723453918482478,-0.540896588796957,-0.3340900217776028,-0.10926883871855078,-1.4229017806538753,0.46456868852025357,1.1690922906807162,-1.6141627171922786,0.2019865595667825,-1.3672417294210353,-0.2961566145589721,0.5404915051363556,0.06049528175101293,2.0058264244704325,1.3031811579850792,-0.11415633244851599,0.6357421256774998,-1.573877928053765,-0.6624290044981223,-0.04860735831396231,1.6077532563403891,0.31678664750348023,-1.194332810392324,0.7806571790223326
27,0.4917084687058654,0.024523829226461673,0.3340512558071011,0.3223538165424003,-1.3518373263142704,-0.08557500214537195,-1.1714541448872855,-0.5403638514300462,-0.33590941213920966,-0.10932063939765552,-1.4218465108821505,0.46453168680639345,1.169003845233272,-1.615169450145763,0.20223316622510715,-1.3672476034308432,-0.29786614369999004,0.5406484245294833,0.060020280520707577,2.006058347653964,1.2970568682506287,-0.12057900445923975,0.630172669566851,-1.5816402550112114,-0.6713177056391565,-0.05565797462041984,1.6009596554667713,0.30977571821885486,-1.2021165380046221,0.7751309210295282
28,0.4926734585607669,0.024344914618645845,0.33437705853285893,0.3207720419659627,-1.3527777581900726,-0.0855939682264513,-1.1704446952515688,-0.5398004234564759,-0.33791460071996093,-0.10927993933509571,-1.4206782396653292,0.46447550491001593,1.1689852642726797,-1.6163420131947153,0.20239125401585067,-1.3672595322078527,-0.2993929398471254,0.5408465401999274,0.0593628095742397,2.00634558168286,1.291431509955906,-0.126259731314324,0.6254423119274294,-1.588834096238388,-0.6796581501363521,-0.06222588876694866,1.5945913168524166,0.3034176775809527,-1.2092139269403397,0.770462892518312
29,0.49377350466593656,0.024142210449212248,0.3347689316527317,0.3190078785410407,-1.35379097062704,-0.08562173581412155,-1.1693361216337652,-0.5392130218080515,-0.3400813091146028,-0.10916040748697063,-1.4194118537455274,0.4644008439258827,1.1690277809621645,-1.6176617186042501,0.2024686943322643,-1.367278018600762,-0.30075732990063353,0.5410792461157505,0.058542232793637884,2.00668110447395,1.28624508508321,-0.13128458618037667,0.6214518892769837,-1.5955254738603477,-0.6875081972567516,-0.06836680625812475,1.5886005851253069,0.2976388906590116,-1.2157025520762004,0.7665530346777994
30,0.4949893246626078,0.02391772779939402,0.3352170413310549,0.31708624532860413,-1.3548687820311427,-0.08565847266095643,-1.1681442416300785,-0.5386069670781857,-0.34238863913062567,-0.10897342505070645,-1.4180601743849939,0.46430866721522307,1.16912377318779,-1.619111691313347,0.20247291749828425,-1.3673033334127058,-0.30197758253449475,0.5413409954011495,0.057576139067163024,2.007058836611298,1.2814455093000883,-0.13572953583921224,0.6181142559131241,-1.6017726414396973,-0.6949200553730778,-0.07412970135054119,1.5829453071719564,0.2923740714679758,-1.2216515456216077,0.763313069087858
31,0.4963047945304315,0.02367344007934671,0.33571326852472294,0.3150285030445331,-1.3560040697641518,-0.08570415573066581,-1.1668821655433512,-0.5379864698680922,-0.3448186678904473,-0.10872847031964505,-1.4166341895699364,0.46420008255600675,1.1692666543122192,-1.6206768556698112,0.20241080537244469,-1.367335580370423,-0.3030699445136586,0.5416271493022606,0.0564803173267387,2.007473545179508,1.2769877327167245,-0.1396611931042666,0.6153532842661967,-1.607626685553421,-0.701940368638514,-0.07955739803038189,1.577588438560573,0.28756574729377954,-1.2271220287116662,0.7606656262379968
32,0.497706417912475,0.023411228425691266,0.3362508962585169,0.3128529465998539,-1.3571906484840894,-0.08575863698181155,-1.165560776030444,-0.5373548639453218,-0.34735604231617867,-0.10843345223893762,-1.4151432953993253,0.4640762609831147,1.1694507494070083,-1.6223438322643147,0.2022886537687357,-1.3673747453084089,-0.3040487724032851,0.5419338345332927,0.055268837132215094,2.007920738314208,1.2728328373088598,-0.14313776898785957,0.6131026729386198,-1.6131322674295907,-0.7086105615928489,-0.08468724540837556,1.572497536225559,0.2831635203400408,-1.232167796063103,0.758543136485447
33,0.4991828719306343,0.023132853011520123,0.33682434953078505,0.31057525739532904,-1.3584231494704502,-0.0858216894052862,-1.1641891311944739,-0.5367147925220741,-0.3499876032412376,-0.10809499097136943,-1.413595524506198,0.4639383826315794,1.1696711729237226,-1.6241007915066905,0.20211217714615648,-1.3674207327040575,-0.3049267075199738,0.5422578163201224,0.05395418277744945,2.0083965626634095,1.2689471877441754,-0.14621006616925272,0.6113047352357684,-1.6183283878747947,-0.7149673023468699,-0.08955179586983776,1.567644225138961,0.2791232706990071,-1.2368360914610075,0.7568866700599362
34,0.5007246268716229,0.0228399409140333,0.33742898244532954,0.3082089024264045,-1.3596969085963735,-0.08589303888781875,-1.1627747972810325,-0.536068355415972,-0.3527020517438477,-0.10771864973345933,-1.4119977514333928,0.4637876018673635,1.1699237157530304,-1.6259372922662172,0.20188653723062053,-1.3674733924439433,-0.3057148633092392,0.5425963892695976,0.052547408886980396,2.008897709671234,1.2653016692641381,-0.14892242904193095,0.6099092582088292,-1.6232491140753351,-0.7210430019510611,-0.09417943931776253,1.5630036860030465,0.27540637966052084,-1.2411683826556392,0.7556448263247748
35,0.5023236318646445,0.022533984208192828,0.3380609056039399,0.3057654781073695,-1.361007866201468,-0.08597238602723345,-1.1613241203632263,-0.5354172245856269,-0.35548966054966913,-0.10730912439357664,-1.410355871759641,0.4636250258850596,1.170204744929088,-1.6278441218201591,0.20161638379872404,-1.3675325392201179,-0.30642300802622363,0.5429472855288859,0.051058298771050704,2.0094213329486252,1.2618710223570402,-0.1513136100963814,0.6088724728589548,-1.6279242398220595,-0.7268663039267005,-0.09859497323221583,1.5585541865020378,0.2719790126545592,-1.2452010881674838,0.7547727201661611
36,0.5039730570457585,0.02221634410156848,0.3387168468245609,0.30325500214107404,-1.3623524796474622,-0.08605942088392123,-1.1598424469022084,-0.5347627345735275,-0.3583420283777583,-0.10687039766512839,-1.4086749554200049,0.4634517025288803,1.1705111166429172,-1.6298131457247802,0.2013059003239006,-1.3675979664508198,-0.3070597340350845,0.543308598498472,0.04949551528977496,2.009964977005698,1.258633271566952,-0.15341753802662528,0.6081561481202736,-1.6323798694727294,-0.7324625403266316,-0.10282010300017816,1.5542766645376702,0.2688114778697878,-1.248966234659944,0.7542310831109698
37,0.5056670828743772,0.021888258400612936,0.339394038967433,0.30068615908056173,-1.363727648045631,-0.08615383279678777,-1.1583343023177675,-0.534105953257406,-0.3612518728830079,-0.10640586420363689,-1.4069593764073631,0.46326861431338556,1.170840101899719,-1.631837171579081,0.20095885013350015,-1.367669456174841,-0.30763261005035253,0.543678719961341,0.0478667392001727,2.010526516622849,1.2555692400340563,-0.15526398694669302,0.6077268062596305,-1.636638926071388,-0.7378541440102349,-0.10687387468897415,1.550154364149765,0.2658776636136701,-1.2524920384742528,0.7539854801814929
38,0.5074007282214062,0.021550850589711422,0.340090129587989,0.2980665058708222,-1.3651306480416094,-0.08625531676813171,-1.1568035354804689,-0.533447737242015,-0.3642128571384283,-0.10591843206949919,-1.405212921709869,0.4630766765250794,1.1711893235579007,-1.6339098279343083,0.20057862062003695,-1.367746786006538,-0.3081483154912045,0.5440562884973914,0.046178793062537624,2.0111041057095935,1.2526621392802075,-0.15687915316381687,0.607555050051201,-1.6407215890438418,-0.7430610144355669,-0.11077304607993467,1.5461725209038963,0.2631545507039331,-1.2558034129892748,0.7540056350895908
39,0.5091697100559789,0.021205139459350156,0.3408031080667936,0.29540264345124645,-1.3665590793279438,-0.0863635774752908,-1.1552534357338862,-0.532788775303663,-0.3672194446706311,-0.1054106051180961,-1.403438882433756,0.4628767379391878,1.171556703295371,-1.6360254580911668,0.2001682642393006,-1.367829733956589,-0.3086127576458027,0.5444401472449243,0.044437750546962605,2.0116961343833304,1.2498972235913004,-0.15828614901595006,0.6076149891838635,-1.6446456689760576,-0.7481008384017973,-0.114532403138737,1.542318091802465,0.26062179303222494,-1.2589224074567043,0.7542648527009294
40,0.5109703287592556,0.02085204864671381,0.34153124669885604,0.292700359909147,-1.368010818546792,-0.08647833165045779,-1.153686827849931,-0.5321296225472252,-0.3702667784953379,-0.10488455004731964,-1.401640129872649,0.4626695831492793,1.1719404170678358,-1.6381790277505128,0.19973053575597147,-1.3679180817100611,-0.3090311730824542,0.5448293093309318,0.042649031921462854,2.0123011930430645,1.2472614991089235,-0.1595054241261247,0.6078837528396083,-1.6484269274760268,-0.7529893692216734,-0.11816502923832575,1.5385795242670546,0.2582613583395334,-1.2618685845995457,0.7547395266591652
41,0.5127993741763482,0.020492415726696647,0.34227305292806914,0.2899647499545337,-1.3694839803393348,-0.08659930934720074,-1.1521061492781863,-0.5314707273366818,-0.37335058016855566,-0.10434215111436806,-1.3998191789770107,0.4624559358320837,1.1723388577433087,-1.6403660451426294,0.1992679256287504,-1.368011616794229,-0.30940821502988947,0.5452229295583337,0.04081748694955099,2.0129180423289914,1.24474347887859,-0.16055512411156925,0.6083410760704813,-1.6520793497924788,-0.7577406686397591,-0.12168253398470878,1.5349465588714215,0.2560572212438001,-1.2646593445976855,0.7554087204007617
42,0.5146540484436719,0.020127000665432,0.3430272304888783,0.2872003147655691,-1.370976884435284,-0.08672625445575198,-1.1505135131826878,-0.530812452592033,-0.37646706545440284,-0.10378505493611358,-1.3979782413382464,0.4622364624953464,1.1727506037551716,-1.6425824921685885,0.19878268967086055,-1.3681101339512385,-0.3097480284829574,0.5456202811833125,0.038947466583879764,2.013545588000299,1.242332976320638,-0.16145139592150212,0.6089689488313293,-1.6556153771578737,-0.7623673159702755,-0.1250952477714651,1.5314100609423864,0.25399510110986623,-1.2673102027417074,0.7562538107901761
43,0.5165319023981751,0.019756493556774935,0.3437926476807998,0.2844110455930824,-1.3724880278231313,-0.08685892471942355,-1.1489107600535096,-0.5301550926829196,-0.3796128737553678,-0.1032147073010578,-1.3961192694755,0.46201177641198843,1.173174392780211,-1.6448247651310277,0.198276875249071,-1.3682134359447065,-0.310054314693399,0.5460207368289134,0.037042884840818975,2.014182859905833,1.2400209307495211,-0.16220864790589257,0.6097513179279352,-1.65904610498345,-0.7668805887278459,-0.12841238739329575,1.5279618767030712,0.2520622381351516,-1.2698350273762724,0.7572581848561021
44,0.5184307830021773,0.01938152162782033,0.34456831137003435,0.28160049393412745,-1.374016061183018,-0.08699709142761215,-1.147299500113502,-0.5294988868701239,-0.3827850089318051,-0.10263238353036351,-1.3942439939191045,0.46178244155027387,1.1736090996020718,-1.6470896237429122,0.1977523443407136,-1.3683213339665332,-0.31033038654864603,0.5464237527603647,0.03510727215539892,2.0148289943535946,1.2377992596055403,-0.16283977162167468,0.6106738335224373,-1.6623814521905251,-0.7712906186529648,-0.13164219727867482,1.5245947102085484,0.2502472018679441,-1.2722462439810656,0.7584069813935058
45,0.5203487897235317,0.019002655537743846,0.3453533456037149,0.2787718305924079,-1.375559768891826,-0.08714053890694776,-1.1456811482888665,-0.5288440300317285,-0.3859807895492865,-0.10203921361427587,-1.3923539543296324,0.4615489763820397,1.174053717457649,-1.6493741472419061,0.1972107937824758,-1.3684336477644432,-0.3105792161647747,0.5468288558955021,0.033143821392357095,2.015483219300669,1.2356607329610971,-0.16335633135468244,0.6117236331081047,-1.6656303061783386,-0.7756065265989667,-0.13479207020115844,1.5213020178671888,0.2485397271887081,-1.2745550104604098,0.7596868704034804
46,0.5222842382163546,0.01862041501500979,0.3461469739517584,0.27592789553178537,-1.3771180520216932,-0.08728906389433226,-1.1440569531540694,-0.5281906812461303,-0.38919780693832434,-0.1014362031033564,-1.3904505256753978,0.4613118574998213,1.1745073422822179,-1.65167569658254,0.19665377303523554,-1.368550205577431,-0.3108034758444815,0.5472356330442308,0.031155427553153703,2.0161448418842265,1.2335988666239928,-0.16376872641485812,0.6128891569873466,-1.6688006472310095,-0.7798365393077914,-0.13786865071431126,1.5180779178292794,0.24693057352602646,-1.2767713679873607,0.7610858644252683
47,0.5242356299714174,0.01823527388781629,0.3469485048717866,0.27307124008857786,-1.3786899138486481,-0.08744247484909476,-1.1424280209781397,-0.5275389706776696,-0.39243388973805216,-0.10082425053843042,-1.3885349403108111,0.4610715230062327,1.174969159369202,-1.6539918818165622,0.19608269976711823,-1.3686708439420272,-0.3110055733881142,0.5476437219684471,0.029144722085105695,2.016813237897561,1.231607830795778,-0.16408633046063176,0.6141599902539412,-1.6718996555611183,-0.7839880906884313,-0.14087792402771118,1.5149171119508609,0.24541140373198458,-1.2789043710983485,0.7625931567578283
48,0.5262016268635819,0.017847664565773053,0.34775731953463385,0.270204162828557,-1.3802744474686583,-0.08760059124289611,-1.140795335775142,-0.5268890051133113,-0.3956870738318945,-0.10020416204833735,-1.3866083066486932,0.4608283756603264,1.1754384320441469,-1.6563205338979927,0.19549887352915252,-1.3687954074146274,-0.31118768260004687,0.5480528039323233,0.02711410257453182,2.0174878428844663,1.2296823717698475,-0.16431761142260917,0.6155267271015193,-1.6749338036712635,-0.7880679098384656,-0.14382529259501753,1.5118148184063271,0.24397467960562166,-1.2809622001668328,0.7641989823753467
49,0.5281810297296304,0.0174579820299556,0.34857286165991613,0.26732874010555435,-1.3818708251858327,-0.08776324285299365,-1.1391597760840682,-0.5262408724237202,-0.39895557677713667,-0.09957666362187398,-1.38467162499686,0.46058278577939654,1.1759144920218592,-1.658659680261309,0.19490348776843924,-1.3689237482422634,-0.31135176970523737,0.5484625974758941,0.025065758494187594,2.0181681445825475,1.227817744588287,-0.16447023501673053,0.6169808539705296,-1.6779089362792432,-0.7920820977199788,-0.1467156423105379,1.508766713333172,0.24261357153328378,-1.2829522588965558,0.7658944980237549
50,0.5301727602742764,0.01706658738539293,0.34939462899955476,0.26444685219154596,-1.3834782893936513,-0.08793026907538029,-1.1375221290625726,-0.5255946451639519,-0.40223777598888055,-0.09894241146289608,-1.3827258010286265,0.4603350939032405,1.1763967311729466,-1.6610075236186825,0.19429764039493908,-1.3690557260048284,-0.31149961628101575,0.5488728531954684,0.02300169357714616,2.0188536764931975,1.226009654933672,-0.164551154350137,0.6185146486224775,-1.6808303396871969,-0.7960361941157803,-0.14955339989826666,1.5057688801528737,0.2413218801201912,-1.2848812590599854,0.767671678558492
51,0.5321758457336383,0.0166738110258222,0.35022216617717855,0.26156020569542215,-1.3850961447166585,-0.08810151826798374,-1.1358831023670468,-0.5249503834838425,-0.4055321900684494,-0.09830200076000044,-1.380771657274497,0.4600856132329438,1.1768845944731354,-1.663362423506109,0.1936823430910606,-1.3691912072449455,-0.31163283921551005,0.5492833493549976,0.020923745304229573,2.0195440123946438,1.2242542088253925,-0.1645666877160548,0.6201210927100215,-1.6837028021700182,-0.7999352362469839,-0.15234258281755797,1.5028177654300932,0.24009396802801586,-1.2867552943569671,0.7695232270627195
52,0.5341894058308636,0.01627995545586479,0.3510550586469529,0.25867035286300455,-1.386723751218619,-0.08827684712973674,-1.1342433342023177,-0.5243081374830069,-0.4088374627721888,-0.09765597314031438,-1.378809942954936,0.4598346318589634,1.1773775739474925,-1.6657228801799233,0.1930585295287637,-1.3693300650967144,-0.31175290812476697,0.5496938881851655,0.018833601919068625,2.020238761646203,1.222547868931039,-0.16452258633484385,0.6217937958099271,-1.686530666704259,-0.8037838102243821,-0.15508684279393523,1.4999101403144985,0.2389247005182065,-1.2885799049737285,0.7714424966843527
53,0.5362126416432941,0.015885297811054164,0.3518929275797213,0.2557787082490057,-1.3883605185150503,-0.08845612011833395,-1.1326034018529327,-0.5236679491178422,-0.4121523492032048,-0.09700482302736173,-1.3768413424189787,0.4595824147944548,1.1778752034535291,-1.6680875205260492,0.19242706263706313,-1.369472178920976,-0.31186116059366775,0.5501042927532337,0.016732817322563678,2.020937565157876,1.2208874165014425,-0.1644240935160527,0.6235269292164323,-1.6893178771473103,-0.807586096329105,-0.1577895039046226,1.497043066761394,0.23780939343881796,-1.2903601341749986,0.7734234224624451
54,0.5382448260688394,0.015490092111614623,0.3527354255198035,0.252886563168248,-1.3900059006544738,-0.0886392089074695,-1.1309638289508035,-0.523029853746325,-0.41547570387949845,-0.09634900308316104,-1.3748664824082792,0.45932920582996134,1.1783770541733563,-1.6704550856958331,0.19178874104358212,-1.3696174339521303,-0.31195881554938654,0.5505144043078636,0.014622824145581557,2.021640091920771,1.2192699181009496,-0.16427599648142052,0.6253151680668194,-1.6920680188007364,-0.8113459089684002,-0.16045359599991268,1.4942138678538788,0.23674376759127352,-1.2921005780547516,0.7754604616897749
55,0.5402852956344233,0.015094571281678286,0.3535822326842589,0.2499950982650817,-1.3916593916546216,-0.08882599188301336,-1.129325091687962,-0.5223938813793688,-0.41880647039013286,-0.09568892888261815,-1.3728859383291616,0.45907522922514044,1.1788827307066196,-1.6728244202258051,0.19114430479700176,-1.369765720959673,-0.31204698502876976,0.5509240800202706,0.012504945253863836,2.022346036011365,1.2176926964389003,-0.16408267189323994,0.6271536405986692,-1.6947843541451983,-0.8150667320259886,-0.16308188411816701,1.491420101654774,0.23572390857932676,-1.293805429397507,0.7775485415884178
56,0.5423334434341353,0.014698948961793648,0.3544330537993507,0.24710539448375446,-1.3933205215979994,-0.08901635367673073,-1.1276876241460259,-0.5217600576940341,-0.4221436723988996,-0.09502498294231239,-1.3709002396847858,0.45882069125238306,1.1793918676737274,-1.6751944624354096,0.19049444046265876,-1.3699169359262777,-0.31212668456122367,0.5513331910569512,0.010380403901164476,2.023055113997056,1.2161533047192863,-0.1638481259695915,0.6290378835275023,-1.6974698544123745,-0.8187517502198122,-0.16567689444968683,1.488659538104595,0.2347462313810093,-1.295478516456728,0.7796830132665872
57,0.544388713021148,0.014303421139138196,0.3552876153874889,0.24421844267619763,-1.3949888532063106,-0.08921018473563079,-1.1260518228838778,-0.5211284048531898,-0.42548640579435476,-0.09435751820469919,-1.3689098747944808,0.45856578160617073,1.1799041267535666,-1.6775642359276828,0.18983978567092477,-1.3700709797433015,-0.3121988423552611,0.5517416209305162,0.008250332714540029,2.0237670626823476,1.2146495040174887,-0.16357602993206657,0.6309638026910285,-1.7001272275574595,-0.8224038769899837,-0.16824093731925482,1.4859301385554011,0.23380744900017403,-1.297123337334978,0.781859611084714
58,0.5464505931071961,0.01390816761679095,0.3561456634329733,0.2413351520454824,-1.3966639788258104,-0.08940738092474727,-1.1244180509006017,-0.5204989421676955,-0.4288338318176417,-0.09368686106158139,-1.3669152949066057,0.4583106746909096,1.1804191940920679,-1.6799328420439583,0.189180933187115,-1.3702277579239293,-0.312264307448749,0.5521492640843604,0.006115781668580228,2.0244816371448566,1.2131792432692823,-0.1632697514180518,0.632927638237554,-1.7027589431107006,-0.826025779363765,-0.1707761275858421,1.4832300375919116,0.23290454465122618,-1.2987430905482056,0.7840744166921072
59,0.5485186129477663,0.013513353340724975,0.3570069613671103,0.23845635759156475,-1.398345517766146,-0.08960784316102906,-1.1227866410707656,-0.5198716866303601,-0.4321851710264586,-0.09301331398666444,-1.3649169177941818,0.45805553079886435,1.1809367780280602,-1.6822994531456956,0.18851843456230505,-1.370387180333723,-0.3123238569592406,0.5525560246744265,0.003977725182416255,2.0251986090184615,1.2117406415207692,-0.1629323823946136,0.6349259337458206,-1.7053672543151612,-0.829619900180182,-0.17328440279834065,1.480557526842885,0.23203474701197158,-1.3003407022705726,0.7863238271071196
60,0.5505923383111535,0.013119129600814907,0.3578712883232905,0.23558282669969227,-1.4000331139440065,-0.0898114770760028,-1.1211578991328257,-0.5192466533454532,-0.4355396979758916,-0.09233715783549618,-1.3629151309083505,0.45780049718872795,1.181456607091251,-1.6846633066151298,0.18785280341637642,-1.3705491609380342,-0.31237820255084303,0.5529618155174822,0.0018370684539194366,2.0259177649876845,1.2103319721408636,-0.16256676403132436,0.6369555087553868,-1.7079542178980873,-0.8331884780025589,-0.17576753939620032,1.4779110405290994,0.2311955081478493,-1.3019188506838908,0.7886045263072738
61,0.55267136794603,0.012725635120087763,0.3587384376208266,0.23271526499001147,-1.4017264337902466,-0.0900181927049246,-1.119532106298021,-0.5186238558731442,-0.43889673651543515,-0.09165865386161517,-1.360910294152912,0.45754570907433145,1.1819784282341532,-1.6870236994821581,0.18718451839768666,-1.3707136175655528,-0.31242799621725215,0.5533665571804007,-0.0003053468709521231,2.02663890546302,1.208951648742225,-0.1621755089224064,0.6390134342637103,-1.7105217117729696,-0.8367335650012223,-0.17822716720186724,1.47528914253076,0.2303844837683405,-1.3034799877947274,0.7909134598743571
62,0.5547553304758007,0.012332997044644092,0.359608215443105,0.22985432152870888,-1.4034251643853122,-0.0902279042002371,-1.1179095215361092,-0.5180033065046779,-0.4422556556170385,-0.09097804548990653,-1.3589027423333735,0.4572912905320436,1.1825020052656232,-1.689379983598191,0.18651402585780785,-1.3708804716871477,-0.31247383546636937,0.5537701771891149,-0.00244873760965687,2.027361843411616,1.207598212593679,-0.16176102099218342,0.6410970108108537,-1.71307145092702,-0.8402570430495738,-0.18066478241657527,1.4726905147879326,0.229599515524863,-1.3050263590307223,0.7932478123056002
63,0.5568438816593216,0.011941331845109888,0.3604804396811846,0.2270005934858016,-1.4051290117929836,-0.09044052956727533,-1.116290383585178,-0.517385016481212,-0.44561586566198524,-0.09029555988168277,-1.3568927873257246,0.4570373553345291,1.1830271174585665,-1.691731561288967,0.1858417422746628,-1.3710496482091026,-0.31251626797988474,0.5541726093393674,-0.00459237446327021,2.0280864033216446,1.2062703213383756,-0.16132551337025403,0.6432037488272967,-1.7156050017130005,-0.8437606382435386,-0.1830817593012184,1.4701139468736146,0.22883861510046566,-1.3065600208840549,0.7956049866578091
64,0.5589367019669526,0.01155074613911896,0.36135493891858855,0.2241546303119443,-1.4068376995668213,-0.09065599042030445,-1.1146749127252293,-0.5167689961668988,-0.4489768151252809,-0.08961140932062316,-1.3548807200032895,0.45678400771773847,1.183553558308468,-1.6940778814279047,0.18516805645298962,-1.3712210752798313,-0.31255579581100473,0.5545737930942417,-0.00673557788330338,2.0288124202819695,1.2049667388582401,-0.16087102448257512,0.6453313509664058,-1.7181237947340613,-0.8472459340261405,-0.18547936069880783,1.4675583266010925,0.22809994987636031,-1.3080828568330345,0.7979825862384281
65,0.5610334944287484,0.011161337443144483,0.362231551536874,0.22131693749591588,-1.4085509674073944,-0.09087421175711843,-1.1130633123489704,-0.5161552551848756,-0.4523379876053491,-0.08892579244421853,-1.352866811954239,0.4565313430872807,1.1840811344228608,-1.6964184358796972,0.18449333152728153,-1.3713946841091678,-0.3125928791748367,0.5549736730558402,-0.008877714331638267,2.0295397391615024,1.2036863261475073,-0.1603994325705611,0.6474776961820855,-1.720629136484562,-0.8507143830748553,-0.1878587475336365,1.4650226315459467,0.22738182998979467,-1.3095965917413879,0.8003783980974044
66,0.5631339827181412,0.010773194860974148,0.36311012492475164,0.21848797995544153,-1.4102685699514939,-0.09109512175057345,-1.1114557703580348,-0.5155438025232763,-0.45569889915451534,-0.08823889534162094,-1.3508513170175018,0.45627944866968656,1.1846096645247508,-1.6987527562707683,0.18381790678909152,-1.3715704087993552,-0.312627939878566,0.5553721985004527,-0.011018192887386556,2.03026821387494,1.202428033076941,-0.15991246882136617,0.6496408253451779,-1.7231222198880218,-0.8541673180888081,-0.19022098740410806,1.462505921378984,0.2266826966228249,-1.3111028049080908,0.8027903781075776
67,0.5652379094399522,0.010386399715234893,0.363990514776197,0.21566818510641253,-1.4119902756771847,-0.09131865155556987,-1.1098524604085027,-0.514934646617089,-0.4590590958722345,-0.08755089253565816,-1.3488344726607309,0.4560284041134913,1.1851389785554804,-1.7010804110491151,0.18314209935778442,-1.3717481861869012,-0.31266136443227444,0.5557693229682156,-0.013156462160722164,2.030997706723548,1.2011908909463371,-0.1594117292678985,0.6518189282202538,-1.7256041338547465,-0.8576059615952548,-0.19256706237072008,1.4600073309199548,0.22600111138289355,-1.3126029419178011,0.8052166374500922
68,0.5673450345961815,0.010001026127602708,0.36487258446522103,0.2128579456491502,-1.413715865910802,-0.09154473513013027,-1.1082535430259546,-0.5143277954106431,-0.4624181517284869,-0.08686194786413691,-1.346816501220536,0.45577828204455384,1.1856689168645864,-1.7034010028010844,0.18246620571139932,-1.3719279556945083,-0.31269350687587805,0.5561650038996425,-0.015292007479070028,2.031728087801306,1.1999740057364952,-0.15889868559612738,0.654010331648337,-1.728075871965809,-0.8610314348796786,-0.19489787602749017,1.4575260638335161,0.22533574665434278,-1.3140983254224772,0.8076554303458501
69,0.5694551342069014,0.009617141552664374,0.3657562044868427,0.21005762210493045,-1.4154451339239102,-0.09177330906934573,-1.1066591666072405,-0.513723256404641,-0.4657756665893998,-0.0861722152733402,-1.3447976110222828,0.4555291485795709,1.1861993294759738,-1.7057141657969324,0.18179050309219635,-1.3721096591923465,-0.3127246913530699,0.5565592023125712,-0.017424348315599778,2.0324592344581296,1.198776551983454,-0.15837469497931697,0.6562134888014904,-1.7305383403764751,-0.8644447661308466,-0.19721425993382546,1.4550613868988391,0.22468537681558168,-1.315590164968098,0.810105142894943
70,0.571567999066856,0.009234807269817716,0.366641251955375,0.20726754513138163,-1.4171778841098777,-0.09200431245107826,-1.1050694683235869,-0.5131210366909442,-0.46913126442107556,-0.08548183953475295,-1.3427779973942866,0.4552810638013421,1.1867300754212247,-1.7080195637406967,0.18111525079965726,-1.372293240867981,-0.3127552144592154,0.5569518825140402,-0.019553035933885403,2.033191030813072,1.1975977672076983,-0.15784100904347742,0.6584269693926175,-1.732992365020529,-0.8678468978809992,-0.19951697947415842,1.4526126247927913,0.2240488702299888,-1.3170795659661017,0.8125642829038984
71,0.5736834336211313,0.008854078837092737,0.36752761015246366,0.20448801764145774,-1.4189139312311096,-0.09223768669241406,-1.1034845749375057,-0.512521142977736,-0.47248459165094236,-0.08479095689446842,-1.34075784358914,0.45503408219898006,1.1872610221321334,-1.710316887703058,0.18044069138214958,-1.372478647104323,-0.3127853473867671,0.557343011842434,-0.02167765122594943,2.033923367311416,1.196436946839543,-0.15729878205516665,0.6606494507387523,-1.7354386981869399,-0.8712386938117023,-0.20180673920436026,1.4501791553339607,0.22342518193010374,-1.3185675378968704,0.8150314705959042
72,0.5758012549456091,0.00847500651033766,0.3684151681184329,0.2017193167473629,-1.4206530997291793,-0.09247337541595939,-1.1019046035441564,-0.5119235816072004,-0.4758353156687783,-0.08409969566338836,-1.3387373216231335,0.45478825307594384,1.1877920448856452,-1.71260585421857,0.17976705173711335,-1.3726658263650195,-0.3128153378888597,0.5577325604359232,-0.02379780272379501,2.034656140320421,1.195293439589194,-0.15674907841147215,0.6628797095889138,-1.7378780245317063,-0.8746209449875674,-0.2040841877367882,1.4477604051411195,0.22281334692453497,-1.3200550018220163,0.8175054301123333
73,0.5779212918199005,0.008097635630832418,0.36930382028143854,0.19896169554796794,-1.4223952230911072,-0.09271132432515948,-1.1003296622462724,-0.5113283585674593,-0.4791831234519744,-0.08340817675519435,-1.3367165930432148,0.45454362092849093,1.1883230262952995,-1.7148862035309673,0.1790945441284594,-1.3728547290867468,-0.31284541207923877,0.558120501023811,-0.025913124767011013,2.035389251759223,1.1941666432162674,-0.15619287950227087,0.6651166146386014,-1.7403109665802763,-0.877994375572834,-0.20634992220964954,1.4453558456651845,0.2222124740655209,-1.3215427972730838,0.8199849817252063
74,0.5800433838821499,0.007722006984059624,0.37019346611972714,0.19621538477584158,-1.4241401432659215,-0.09295148108790074,-1.0987598507704697,-0.5107354795001783,-0.4825277203016631,-0.08271651417810165,-1.3346958096296428,0.4543002257968937,1.188853855844071,-1.7171576979722443,0.17842336712885337,-1.3730453075779157,-0.3128757760845173,0.5585068087378888,-0.028023275811173084,2.036122608759003,1.19305600065896,-0.15563109000647285,0.6673591196624835,-1.7427380897695164,-0.8813596480795499,-0.2086044923810301,1.4429649895584717,0.22162174042243246,-1.3230316885764064,0.8224690346899767
75,0.5821673808565343,0.007348157132072955,0.37108400985297796,0.19348059431795112,-1.4258877101263738,-0.09319379522772923,-1.0971952610316562,-0.5101449497049824,-0.4858688286780958,-0.08202481548558577,-1.332675114041395,0.4540581035915448,1.189384429454177,-1.7194201204629322,0.17775370649367864,-1.3732375159233376,-0.31290661756287963,0.558891460941325,-0.030127936863607607,2.0368561233500713,1.1919609964877451,-0.1550645436767019,0.6696062572050085,-1.74515990707263,-0.884717368190652,-0.2108484043833098,1.4405873873491433,0.22104038611286683,-1.3245223706670095,0.8249565806764364
76,0.5842931418455115,0.0069761187216493496,0.37197536015927896,0.19075751462231819,-1.4276377809713356,-0.09343821802208291,-1.095635977651327,-0.5095567741415964,-0.4892061871251601,-0.08133318219057155,-1.330654640410444,0.4538172863958789,1.1899146490899988,-1.7216732731224784,0.17708573597270494,-1.3734313098944395,-0.3129381071017374,0.5592744370729609,-0.032226810034677915,2.037589712172965,1.1908811536525192,-0.1544940086605878,0.671857132775728,-1.7475768832455902,-0.8880680891965105,-0.21308212416967487,1.4382226243923204,0.22046770954849698,-1.326015474438526,0.8274466877228107
77,0.5864205346799185,0.006605920770189422,0.3728674299147762,0.1880463180013982,-1.4293902200649493,-0.09368470240699386,-1.0940820784347376,-0.5089709574304391,-0.4925395492752132,-0.08064171014697714,-1.3286345148902183,0.4535778027478649,1.19044442239076,-1.7239169759799127,0.17641961806482304,-1.3736266468646499,-0.31297039950543043,0.5596557185051904,-0.03431961719412936,2.038323296211049,1.1898160304956402,-0.15392019240139765,0.6741109195022449,-1.7499894387294386,-0.8914123160793666,-0.21530608068094248,1.4358703180724475,0.21990306305763527,-1.3275115716709291,0.8299384946644155
78,0.5885494353209133,0.0062375889311358495,0.3737601359534512,0.18534715984164984,-1.4311448982090889,-0.09393320288776895,-1.0925336348112817,-0.50838750385225,-0.4958686829265128,-0.07995048990199431,-1.3266148561628757,0.45333967790166485,1.1909736623300342,-1.7261510657761037,0.17575550472062487,-1.3738234857296114,-0.3130036349828465,0.5600352884138553,-0.03640609872322254,2.0390568005424288,1.188765218006363,-0.1533437461559993,0.676366853199005,-1.752397953239126,-0.8947505092764768,-0.21752066875786683,1.4335301152342108,0.21934584885063962,-1.32901117957339,0.8324312059937145
79,0.5906797273085246,0.005871145740508344,0.374653398844833,0.18266017972764165,-1.4329016923460938,-0.09418367545520381,-1.0909907122418177,-0.507806417347199,-0.4991933691864759,-0.07925960702204991,-1.3245957759094251,0.4531029340709199,1.1915022868995133,-1.7283753948498586,0.175093537997101,-1.3740217868319038,-0.31303794024376586,0.5604131316588041,-0.03848601235441834,2.039790154109285,1.187728337294837,-0.15276526916402644,0.6786242278147667,-1.7548027690663623,-0.8980830881496068,-0.2197262518214337,1.4312016898217004,0.21879551529793081,-1.3305147649756386,0.8349240871133711
80,0.5928113012522271,0.0055066108460031585,0.3755471426877542,0.1799855024880778,-1.4346604851890972,-0.09443607750692756,-1.0894533705962064,-0.507227701513829,-0.5025134016748084,-0.07856914239501901,-1.322577379246232,0.45286759065499776,1.1920302188147913,-1.730589830100962,0.17443385066828487,-1.3742215118899845,-0.31307342951180567,0.5607892346739471,-0.040559132091277164,2.0405232895029646,1.1867050372661654,-0.15218531249851577,0.6808823912256006,-1.7572041941211176,-0.9014104341857302,-0.22192316434131765,1.4288847407075869,0.21825155349357,-1.332022748197768,0.8374164599480298
81,0.5949440543595276,0.00514400121997198,0.3764412949185138,0.1773232391702937,-1.4364211648775733,-0.09469036777351206,-1.0879216645039063,-0.506651359608095,-0.5058285857812517,-0.07787917251093897,-1.320559765131006,0.4526336644494262,1.1925573852411808,-1.7327942520239739,0.17377656679528466,-1.3744226239310848,-0.31311020546102597,0.5611635853657991,-0.042625247202016214,2.0412561427633826,1.1856949924770595,-0.15160438262513884,0.6831407413437821,-1.75960250473395,-0.9047328939513379,-0.2241117141106274,1.4265789896959278,0.21771349408013238,-1.3335355066254047,0.8399076988841798
82,0.5970778899990291,0.004783331357477325,0.37733578613203,0.17467348794905277,-1.4381836246560011,-0.0949465062490137,-1.0863956436801119,-0.5060773945426966,-0.5091387379732948,-0.07718976972319855,-1.3185430267409939,0.4524011698416374,1.1930837175378202,-1.7349885538072383,0.1731218022588041,-1.3746250872278132,-0.3131483600825434,0.5615361730196339,-0.044684161280850426,2.0419886531914595,1.1846979011594174,-0.15102294469439198,0.6853987225160063,-1.761997948239152,-0.9080507818205946,-0.22629218434326345,1.4242841796838364,0.21718090431305936,-1.335053378014511,0.8423972270106163
83,0.5992127172948628,0.004424613460516999,0.37823054991475114,0.17203633497485318,-1.4399477625737618,-0.09520445412564481,-1.0848753532296211,-0.5055058088868436,-0.5124436851497235,-0.07650100249193886,-1.3165272518257893,0.45217011899305887,1.193609151018524,-1.737172640492107,0.17246966525695445,-1.3748288672382432,-0.31318797548687166,0.5619069882124893,-0.04673569137183746,2.0427207631734823,1.1837134833967213,-0.15044142558868345,0.6876558221870436,-1.7643907453567789,-0.9113643824956642,-0.22846483560862052,1.4220000729686766,0.21665338534482426,-1.3365766635477483,0.844884512634789
84,0.6013484507497325,0.004067857609417211,0.37912552268825206,0.16941185516641277,-1.4417134812045977,-0.09546417373229851,-1.0833608339303553,-0.5049366048665505,-0.5157432640363281,-0.07581293561119928,-1.314512523036881,0.451940522008505,1.194133624728009,-1.7393464281878677,0.17182025677089682,-1.3750339305492754,-0.3132291246471547,0.562276022732361,-0.04877966715046788,2.0434524180163955,1.1827414794405395,-0.14986021674412256,0.6899115678073191,-1.7667810923899279,-0.914673953335828,-0.2306299076169624,1.4197264496887183,0.2161305697111447,-1.3381056306622554,0.8473690660527645
85,0.6034850098941319,0.0037130719223108827,0.3800206435625791,0.16680011295153085,-1.4434806873841293,-0.09572562847667455,-1.0818521224982314,-0.5043697843655194,-0.5190373206204822,-0.07512563042116556,-1.3124989182358335,0.4517123870937519,1.194657081232274,-1.741509843338289,0.1711736710006227,-1.375240244823084,-0.313271872087969,0.5626432695030044,-0.05081593015869824,2.0441835657931544,1.1817816481556445,-0.14927967676493123,0.6921655239649778,-1.7691691632521134,-0.917979726510506,-0.23278762086754937,1.417463106386312,0.21561211900315352,-1.3396405156668736,0.8498504365526749
86,0.6056223189595622,0.0033602627035433964,0.38091585419852214,0.16420116296011564,-1.4452492919640747,-0.09598878279077445,-1.080349251834894,-0.5038053489266432,-0.5223257096216444,-0.0744391450067257,-1.3104865107827823,0.4514857207021104,1.1951794664220483,-1.7436628220360701,0.17052999577297465,-1.3754477787464676,-0.31331627452394084,0.563008722513837,-0.05284433308952613,2.0449141571973626,1.1808337655833383,-0.14870013384673128,0.6944172897248334,-1.771555111338249,-0.9212819109899467,-0.23493817817049117,1.4152098546836438,0.21509772171092723,-1.3411815261652076,0.8523282096334214
87,0.6077603065738113,0.003009434581781313,0.38181109867809176,0.161615050672808,-1.4470192095819594,-0.09625360207955361,-1.0788522512596512,-0.5032432997541363,-0.5256082939951267,-0.0737535343834081,-1.3084753698067497,0.45126052767075353,1.1957007293283248,-1.7458053093818096,0.16988931292382817,-1.37565650198294,-0.3133623814520378,0.5633723767544968,-0.054864739117559715,2.0456441454065004,1.1798976236135448,-0.14812188802348225,0.6966664961582267,-1.7739390712515395,-0.9245806943861468,-0.23708176605231146,1.4129665200620283,0.2145870912250913,-1.3427288432994742,0.8548020044220777
88,0.6098989054765597,0.0026605906385394704,0.3827063233825637,0.1590418130283186,-1.4487903584452062,-0.09652005267253434,-1.077361146726811,-0.5026836377162867,-0.5288849444667358,-0.07306885067166294,-1.30646556045913,0.45103681134749857,1.196220821949109,-1.7479372588844009,0.16925169865619394,-1.375866385127408,-0.3134102357010557,0.5637342281536589,-0.05687702127234677,2.0463734859531297,1.17897302875708,-0.14754521325152906,0.6989128040492549,-1.7763211603975162,-0.9278762446554838,-0.2392185560543285,1.4107329407364932,0.2140799639843993,-1.3442826238287862,0.8572714712749261
89,0.6120380522537519,0.0023137325277876094,0.3836014768775258,0.156481478992319,-1.4505626601286081,-0.09678810177819938,-1.0758759610294977,-0.5021263633488059,-0.5321555390961117,-0.07238514326034905,-1.3044571441515596,0.4508145737086951,1.196739699086585,-1.7500586319000229,0.1686172238758561,-1.3760773996632902,-0.31345987394151387,0.5640942735217664,-0.058881061851504955,2.047102136603514,1.17805980101028,-0.14697035934304667,0.7011559017641209,-1.7787014804554886,-0.931168711673579,-0.2413487059321683,1.4085089666181305,0.21357609775823228,-1.3458430020543615,0.8597362895483841
90,0.6141776870893303,0.0019688605872484593,0.3844965098044241,0.15393407009048507,-1.4523360393842681,-0.09705771744099857,-1.074396713990917,-0.5015714768587477,-0.5354199628667877,-0.07170245896020348,-1.3024501787792733,0.4505938154688237,1.197257318193983,-1.7521693971071186,0.16798595450603343,-1.376289517921947,-0.3135113271589018,0.5644525104973623,-0.06087675187094095,2.047830057243155,1.1771577728048437,-0.14639755376012045,0.703395503271491,-1.7810801187368177,-0.934458228692033,-0.24347236076401793,1.40629445835733,0.21307527005390509,-1.3474100916031102,0.8621961655272572
91,0.616317753533059,0.0016259739419545068,0.3853913747781591,0.15139960090807403,-1.4541104239631741,-0.09732886850081383,-1.0729234226439452,-0.5010189781289557,-0.5386781073011708,-0.07102084214799573,-1.3004447189309383,0.4503745361823683,1.1977736392314957,-1.7542695300149669,0.16735795178243584,-1.376502713044291,-0.3135646210929746,0.5648089374967478,-0.06286399054966524,2.048557209768787,1.1762667880363669,-0.14582700327976156,0.7056313463027727,-1.7834571494386393,-0.9377449136858943,-0.24558965397459023,1.404089286461594,0.21257727663951048,-1.3489839870801066,0.8646508304988132
92,0.6184581982832844,0.001285070600589909,0.3862860262903277,0.14887807955822735,-1.455885744447643,-0.09760152455473832,-1.0714561013998407,-0.500468866722999,-0.5419298700987889,-0.07034033490200392,-1.2984408160858767,0.4501567343384862,1.1982886245306497,-1.7563590125036328,0.16673327252998438,-1.3767169589444659,-0.31361977664557467,0.565163553666719,-0.06484268482690525,2.0492835579864237,1.1753867011655859,-0.14525889553931268,0.7078631906421391,-1.7858326348009614,-0.9410288706000065,-0.24770070828119697,1.401893330482152,0.21208193017378996,-1.350564765599616,0.867100038962117
93,0.6205989709835859,0.0009461475451067423,0.3871804206177472,0.1463695081210193,-1.4576619340939296,-0.09787565592103559,-1.0699947622068013,-0.49992114189054976,-0.5451751547962901,-0.06966097712939318,-1.2964385187995027,0.4499404074489646,1.1988022386665855,-1.7584378323932488,0.1661119694223703,-1.3769322302754774,-0.3136768102592592,0.5655163588401609,-0.06681274890939534,2.050009067515068,1.1745173763868508,-0.14469340047093812,0.7100908165369525,-1.7882066261744256,-0.9443101905017378,-0.24980563656780802,1.3997064782640734,0.21158905893520571,-1.3521524882035743,0.8695435669629179
94,0.6227400240323554,0.0006092008140706254,0.3880745157359305,0.1438738830551199,-1.4594389286843568,-0.09815123360515368,-1.0685394146990317,-0.49937580257315656,-0.5484138704477978,-0.06898280668602609,-1.2944378728777322,0.44972555212991855,1.199314448337748,-1.7605059830407301,0.16549409122554426,-1.3771485023966765,-0.31373573426883444,0.5658673534942965,-0.06877410384688039,2.0507337056957486,1.1736586868587904,-0.1441306716332058,0.7123140232199795,-1.7905791650054392,-0.9475889526470097,-0.2519045426925042,1.3975286252549992,0.21109850564300642,-1.3537472011757274,0.8719812105451492
95,0.6248813124044325,0.0002742255801593618,0.38896827123721184,0.1413911955838035,-1.4612166663883606,-0.0984282292676768,-1.0670900663369287,-0.4988328474103658,-0.551645931324331,-0.06830585948919142,-1.2924389215410643,0.4495121641776555,1.1998252222525243,-1.7625634629621594,0.16487968302615016,-1.3773657513429942,-0.31379655722773353,0.5662165387114103,-0.07072667713401244,2.051457441505559,1.1728105139925382,-0.14357084744714574,0.7145326275354613,-1.7929502837448659,-0.9508652254660082,-0.25399752223330446,1.3953596738680096,0.21061012636364063,-1.355348937259007,0.8744127843107925
96,0.6270227934839875,-5.8783777790675476e-05,0.3898616482532481,0.13892143205691107,-1.4629950876319022,-0.09870661519410502,-1.0656467225389465,-0.4982922747461466,-0.5548712566310972,-0.06763016962369782,-1.2904417055789779,0.44930023863910284,1.2003345310224056,-1.7646102754792046,0.16426878644584847,-1.3775839537958359,-0.3138592842110292,0.5665639161418813,-0.07267040233694949,2.052180245476406,1.171972746793256,-0.14301405234360473,0.7167464626617136,-1.7953200066859794,-0.9541390674744741,-0.2560846631769598,1.3931995328944955,0.21012378949638166,-1.3569577167831408,0.8768381200804903
97,0.6291644269079132,-0.00038983360782238804,0.3907546093816426,0.13646457429026204,-1.4647741349747263,-0.0989863642663589,-1.0642093868056564,-0.4977540826355731,-0.5580897702415463,-0.06695576944174504,-1.2884462634952354,0.44908976987716903,1.200842347061279,-1.7666464283880408,0.16366143984241055,-1.3778030870555473,-0.3139239170967368,0.566909487969374,-0.07460521874308297,2.052902089618197,1.1711452812510186,-0.1424603978282029,0.7189553769234778,-1.7976883507369503,-0.9574105281160258,-0.25816604655495173,1.3910481169632274,0.20963937483249173,-1.3585735487089727,0.8792570656478612
98,0.6313061744190406,-0.0007189309226367071,0.3916471186164574,0.1340205998839109,-1.4665537529949866,-0.09926744993591224,-1.0627780608364834,-0.49721826885172177,-0.5613014004471589,-0.06628268965695404,-1.2864526316446498,0.44888075163138286,1.2013486444904793,-1.7686719336493524,0.163057678498407,-1.3780231290153677,-0.31399045482694093,0.5672532568780497,-0.07653107103242815,2.0536229473462044,1.170328019777437,-0.14190998346972805,0.7211592326877538,-1.800055326132734,-0.9606796485405575,-0.2602417470306099,1.3889053460421112,0.20915677268267663,-1.3601964315954893,0.8816694836209922
99,0.633447999728546,-0.0010460833417918335,0.39253914128239886,0.1315894825205505,-1.4683338881807926,-0.09954984619846181,-1.0613527446395636,-0.49668483089274407,-0.5645060797220035,-0.06561095943291004,-1.2844608443618242,0.44867317707413507,1.2018533990492646,-1.7706868070980872,0.16245753479825983,-1.3782440581367934,-0.3140588936501667,0.5675952260216711,-0.07844790896930945,2.0543427934123857,1.1695208706846631,-0.14136289781737502,0.7233579053373,-1.802420937090862,-0.9639464623233847,-0.2623118334409683,1.3867711449793891,0.20867588306797008,-1.3618263544951044,0.8840752503450602
100,0.6355898683869642,-0.0013712990380238036,0.3934306439724737,0.12917119224527937,-1.4701144888282576,-0.09983352757004808,-1.0599334366351363,-0.4961537659890746,-0.5677037445011678,-0.06494060646654756,-1.2824709340823421,0.44846703886282285,1.202356588010393,-1.7726910681717156,0.16186103839437893,-1.3784658534262753,-0.31412922734631366,0.5679353989944828,-0.08035568711306339,2.05506160384042,1.1687237477036785,-0.14081921925184446,0.7255512823164081,-1.804785182415307,-0.967210996129463,-0.2643763692967059,1.384645443081293,0.20819661496954192,-1.3634632977823502,0.8864742549004695
101,0.6377317476632611,-0.0016945866874089914,0.3943215944889289,0.12676569572787305,-1.471895504945656,-0.10011846906454583,-1.058520133752857,-0.49562507111074106,-0.5708943349722242,-0.06427165706668449,-1.2804829314568587,0.4482623291881792,1.2028581901005055,-1.7746847396558356,0.16126821636305744,-1.3786884944131788,-0.3142014474353754,0.5682737798037601,-0.08225436454656428,2.055779355864268,1.1679365695390005,-0.14027901677495405,0.7277392622439457,-1.807148056052274,-0.9704732703266923,-0.2664354132432711,1.3825281737233852,0.20771888563325008,-1.3651072339207546,0.8888663981712914
102,0.6398736064314615,-0.002015955423107573,0.3952119617872991,0.124372956508627,-1.4736768881633258,-0.10040464617244811,-1.0571128315233944,-0.49509874297474166,-0.5740777948789437,-0.0636041362279915,-1.2784968654585034,0.4480590398190503,1.2033581854250344,-1.7766678474460327,0.16067909335075944,-1.3789119611289409,-0.3142755433710822,0.568610372843926,-0.08414390462145498,2.056496027870053,1.1671592594571514,-0.13974235074208355,0.7299217540890148,-1.8095095476014933,-0.9737332995520233,-0.2684890194860583,1.3804192739930314,0.2072426199250568,-1.3667581281723336,0.8912515919791604
103,0.6420154150643572,-0.002335414792444138,0.39610171592339594,0.12199293522877293,-1.4754585916489693,-0.10069203484087108,-1.0557115241646482,-0.49457477805246175,-0.5772540713365214,-0.06293806770066539,-1.2765127634839915,0.4478571621438665,1.203856555397376,-1.7786404203249733,0.16009369171139318,-1.3791362340873572,-0.31435150272052154,0.5689451828721407,-0.08602427471903558,2.057211599341083,1.1663917449064276,-0.13920927354146886,0.7320986764048981,-1.8118696427863252,-0.9769910932338189,-0.27053723818229486,1.3783186843606396,0.2067677497337057,-1.3684159392538182,0.893629758278119
104,0.644157145333856,-0.0026529747170976636,0.3969908280030843,0.1196255898464086,-1.4772405700280316,-0.10098061145471106,-1.054316204662904,-0.49405317257710063,-0.5804231146576219,-0.06227347405605732,-1.2745306514488082,0.4476566872090363,1.2043532826720813,-1.7806024897537767,0.15951203163512734,-1.3793612942659401,-0.31442931133071966,0.56927821498528,-0.08789544602582879,2.0579260508058415,1.1656339571656933,-0.13867983022407848,0.7342699566172696,-1.8142283238857448,-0.9802466560736701,-0.27258011580210145,1.3762263483774786,0.20629421341731125,-1.370080619943438,0.8960008284062168
105,0.6462987703175598,-0.002968645456188016,0.39787927013469854,0.11727087583882412,-1.47902277930885,-0.10127035281888908,-1.052926864849224,-0.49353392255108497,-0.5835848781885954,-0.06161037674849237,-1.2725505538768098,0.44745760575447807,1.2048483510818355,-1.782554089676768,0.15893413126927391,-1.3795871230882886,-0.3145089534830969,0.5696094745982191,-0.08975739332290204,2.0586393637887808,1.1648858310200811,-0.13815405908754416,0.7364355303629205,-1.8165855701310503,-0.9834999884906377,-0.27461769546101017,1.3741422123980547,0.20582195529074826,-1.3717521176418137,0.8983647423899572
106,0.6484402643111846,-0.003282437572060147,0.39876701538396014,0.1149287463920545,-1.480805176812293,-0.10156123614162144,-1.0515434954713547,-0.4930170237534463,-0.5867393181552537,-0.06094879617350178,-1.2705724939845675,0.4472599082464893,1.2053417455780033,-1.7844952563387704,0.15836000683172916,-1.3798137024074153,-0.31459041203664706,0.5699389674233464,-0.0916100947880834,2.05935152076377,1.1641473044616397,-0.13763199221737635,0.7385953408755129,-1.818941358069934,-0.9867510870306802,-0.2766500172260581,1.372066225325171,0.20535092515094702,-1.3734303748902592,0.9007214482979536
107,0.6505816027464644,-0.0035943618985802206,0.3996540377312654,0.1125991525784386,-1.4825877211056164,-0.10185323901865793,-1.0501660862614104,-0.49250247174714273,-0.5898863935176322,-0.06028875172267682,-1.2685964937607586,0.4470635849081398,1.20583345217454,-1.7864260281141457,0.1577896727174349,-1.3800410144899775,-0.31467366856063195,0.5702666994512355,-0.09345353181026124,2.0600625051100443,1.1634183184131077,-0.13711365598847094,0.7407493384151075,-1.8212956619003629,-0.9899999447438267,-0.2786771183974209,1.3699983383759369,0.20488107783740175,-1.3751153298495642,0.9030709016404027
108,0.6527227621141971,-0.0039044295117701532,0.40054031203121876,0.11028204352291784,-1.4843703719402848,-0.10214633941843271,-1.0487946259995848,-0.4919902618863079,-0.5930260658331965,-0.05963026183534054,-1.2666225740408914,0.4468686257473639,1.2063234578950717,-1.7883464453468445,0.15722314159829465,-1.3802690420013624,-0.31475870345752766,0.5705926769324102,-0.09528768881500807,2.0607723010705263,1.1626988164731233,-0.1365990715297064,0.7428974797384379,-1.8236484537765336,-0.9932465515314748,-0.2806990337674085,1.367938504867122,0.20441237282538768,-1.3768069167421058,0.905413064811216
109,0.6548637198921181,-0.004212651702618513,0.4014258139742939,0.10797736655876482,-1.486153090193521,-0.10244051566807531,-1.047429102574121,-0.4914803893234111,-0.5961582991279867,-0.05897334404722265,-1.2646507545776358,0.44667502058291375,1.2068117507229632,-1.790256550200768,0.15666042451695253,-1.3804977679915789,-0.31484549607690815,0.5709169063601377,-0.09711255310081464,2.061480893712382,1.1619887446813022,-0.13608825515423706,0.745039727607107,-1.8259997040890132,-0.9964908944660206,-0.2827157958585141,1.3658866800183704,0.2039447738495559,-1.3785050662599456,0.9077479065698623
110,0.6570044544773024,-0.004519039951916446,0.40231052005051027,0.10568506737339062,-1.487935837813357,-0.1027357464402325,-1.0460695030377596,-0.490972849016316,-0.599283059775219,-0.05831801503631213,-1.262681054107015,0.44648275906832563,1.2072983195541989,-1.792156386519789,0.15610153097481905,-1.3807271758819109,-0.31493402482090493,0.5712393944541923,-0.09892811468526483,2.0621882688896913,1.1612880513017247,-0.13558121875790932,0.7471760503310723,-1.8283493817210115,-0.999732958084873,-0.2847274351420843,1.363842820771897,0.20347824855573685,-1.380209705941374,0.9100754015601724
111,0.6591449451228157,-0.004823605906977341,0.40319440751501884,0.1034050901448416,-1.4897185777669766,-0.10303201074065368,-1.044715813660875,-0.49046763573522617,-0.6024003163808949,-0.057664290666052005,-1.260713490410699,0.4462918307140406,1.2077831541529165,-1.7940459996968199,0.15554646901470456,-1.3809572494522888,-0.3150242672418376,0.5715601481455331,-0.10073436616052257,2.062894413208118,1.1605966866234814,-0.13507797018806061,0.7493064213449663,-1.830697454282599,-1.002972724660755,-0.2867339802390674,1.3618068856273922,0.20301276817893388,-1.381920760518196,0.9123955298635451
112,0.661285171878353,-0.005126361360108382,0.4040774543554954,0.1011373776695599,-1.491501273992149,-0.1033292878964955,-1.0433680199814903,-0.48996474406950774,-0.6055100396759919,-0.05701218602603198,-1.2587480803746263,0.44610222490781165,1.2082662451094375,-1.795925436551351,0.15499524529839953,-1.3811879728293388,-0.31511620013256864,0.5718791745618449,-0.10253130255754028,2.063599313991462,1.1599146027770164,-0.13457851358480563,0.7514308188149637,-1.8330438883245492,-1.006210174450062,-0.28873545810418855,1.359778834490959,0.2025483072456277,-1.3836381522358885,0.914708276584163
113,0.6634251155346165,-0.0054273182287109005,0.4049596392612456,0.09888187148194805,-1.493283891351565,-0.10362755754530344,-1.0420261068523595,-0.48946416843438084,-0.6086122024148387,-0.05636171547032528,-1.256784840044171,0.44591393093351994,1.20874758380065,-1.7977947452149199,0.15444786517952044,-1.38141933047507,-0.31520979961009893,0.5721964810138903,-0.10431892121843495,2.064302959249995,1.1592417535651058,-0.13408284969676978,0.7535492252740602,-1.8353886495333651,-1.0094452859209178,-0.2907318941948063,1.3577586285369843,0.20208484329864299,-1.3853618011486108,0.9170136314639913
114,0.6655647575712023,-0.005726488536894758,0.4058409415939298,0.09663851196624605,-1.4950663955899013,-0.10392679962463033,-1.0406900584852874,-0.4889659030774736,-0.6117067792792947,-0.05571289265360828,-1.2548237846760544,0.4457269379885148,1.2092271623526065,-1.799653975024004,0.153904332771921,-1.3816513071761634,-0.31530504119288355,0.5725120749826296,-0.10609722167651153,2.0650053376504767,1.158578094307382,-0.13359097617309518,0.7556616272837758,-1.8377317029089286,-1.012678035962453,-0.29272331262561174,1.35574623008194,0.20162235664294995,-1.3870916253909098,0.9193115885254793
115,0.6677040801077784,-0.006023884398499662,0.40672134135982085,0.09440723846119872,-1.496848753293443,-0.10422699436225405,-1.0393598584928525,-0.4884699420852327,-0.614793746788383,-0.055065730565193594,-1.252864928787194,0.44554123519958444,1.2097049736052061,-1.8015031764198624,0.15336465101395025,-1.3818838880338282,-0.31540189987231554,0.572825964107062,-0.1078662055434459,2.0657064384877564,1.1579235816973998,-0.13310288783341834,0.7577680151204246,-1.840073012926119,-1.015908400076721,-0.2947097363102495,1.353741602469175,0.20116083011088584,-1.388827541427829,0.9216021457400275
116,0.6698430658583482,-0.0063195180014235935,0.40760081918351215,0.09218798935796299,-1.4986309318521076,-0.10452812226695833,-1.0380354899276865,-0.48797627938918675,-0.6178730832130415,-0.054420241561099904,-1.2509082862006713,0.4453568116376558,1.2101810110788391,-1.80334240085488,0.1528288217288218,-1.3821170584541913,-0.31550035017879363,0.5731381561727487,-0.10962587640316906,2.066406251657875,1.1572781736713071,-0.13261857691740253,0.7598683824842237,-1.8424125436816379,-1.019136352554563,-0.2966911870908599,1.3517447099638307,0.20070024884538754,-1.3905694642850157,0.9238853047204117
117,0.6719816980884085,-0.006613401593165279,0.40847935628299686,0.08998070219167761,-1.500412899423725,-0.10483016411984304,-1.0367169353194559,-0.48748490877205886,-0.6209447684956775,-0.053776437394275026,-1.2489538700889853,0.44517365633131734,1.2106552689428791,-1.8051717007049948,0.15229684568134313,-1.382350804139188,-0.315600366242762,0.5734486591009774,-0.11137623971202334,2.067104767632577,1.1566418292872516,-0.13213803331529742,0.7619627262296296,-1.8447502590271934,-1.022361866636644,-0.2986676858564704,1.3497555176570828,0.2002406000999236,-1.3923173077603,0.9261610704354805
118,0.6741199605748203,-0.0069055474674940024,0.40935693444604393,0.08778531372709258,-1.5021946249004292,-0.10513310096613161,-1.0354041767096824,-0.48699582387372675,-0.6240087841742333,-0.05313432924308201,-1.2470016930147554,0.4449917582792494,1.2111277419859119,-1.8069911291878173,0.1517687226312376,-1.382585111077926,-0.3157019218510824,0.5737574809385326,-0.11311730270478752,2.067801977435154,1.1560145086147169,-0.1316612447808975,0.7640510461153969,-1.8470861226901085,-1.0255849146607876,-0.300639252651096,1.3477739913789661,0.19978187305390646,-1.3940709846181207,0.9284294509455535
119,0.676257837568224,-0.007195967952165962,0.4102335360077995,0.08560176003863142,-1.5039760778770368,-0.10543691410744536,-1.0340971956845333,-0.4865090181970284,-0.6270651133104822,-0.052493927738152056,-1.2450517669690233,0.44481110646164324,1.211598425587598,-1.8088007402860737,0.15124445138327866,-1.3828199655384918,-0.3158049904990746,0.5740646298480357,-0.11484907430619326,2.0684978726175465,1.1553961726330384,-0.1311881971281754,0.766133344572963,-1.8494200983823437,-1.0288054681966574,-0.3026059067723454,1.3458000976190956,0.19932405864245,-1.3958304067680731,0.9306904571570579
120,0.6783953137578387,-0.007484675397611944,0.41110914382954633,0.08342997658523699,-1.5057572286212815,-0.10574158509451603,-1.032795973405699,-0.48602448511341306,-0.6301137404222948,-0.05185524298770196,-1.2431041034072972,0.44463168985068235,1.2120673156920738,-1.810600588676027,0.15072402983444128,-1.3830553540601767,-0.31590954543853744,0.5743701140988239,-0.11657156504757885,2.0691924452386288,1.1547867831384042,-0.1307188744127774,0.7682096264918511,-1.851752149898848,-1.032023498168762,-0.3045676668612729,1.3438338034546513,0.19886714939941777,-1.3975954854287607,0.9329441025950374
121,0.6805323742384956,-0.007771682166526274,0.4119837412785574,0.0812698982803303,-1.5075380480457947,-0.10604709572030932,-1.0315004906394785,-0.48554221786843743,-0.6331546514196311,-0.051218284601408356,-1.2411587132834716,0.44445349742015594,1.212534408782796,-1.8123907296605555,0.15020745501826385,-1.3832912634460914,-0.31601555972204104,0.5746739420583344,-0.11828478698834842,2.06988568784361,1.1541863026586947,-0.13025325909948596,0.7702798990208781,-1.8540822412060873,-1.0352389749686797,-0.3065245509841596,1.3418750764850416,0.19841113931278093,-1.3993661312780519,0.9351904031922632
122,0.682669004479766,-0.008057000624291849,0.4128573122089823,0.07912145955719133,-1.5093185076817193,-0.10635342801353401,-1.0302107277841737,-0.485062209587108,-0.636187833544026,-0.05058306171292571,-1.2392156070817524,0.44427651815426805,1.2129997018587464,-1.8141712191065842,0.1496947231466009,-1.3835276807561516,-0.31612300624376083,0.5749761221839684,-0.11998875364192603,2.070577593444487,1.1535946943755628,-0.12979133221667621,0.7723441713840358,-1.8564103365215334,-1.0384518685573438,-0.30847657670685863,1.3399238847726997,0.19795602369137447,-1.4011422545907608,0.9374293770937633
123,0.6848051902970514,-0.008340643130180604,0.41372984094370924,0.07698459443005229,-1.5110985796538539,-0.10666056423251238,-1.0289266648959012,-0.4845844532790701,-0.6392132753113532,-0.04994958300113003,-1.2372747948467033,0.44410074105570285,1.2134631924119115,-1.8159421133865854,0.1491858296489363,-1.3837645933004066,-0.3162318577771043,0.5752766630154035,-0.12168347990591354,2.071268155501489,1.1530119220531985,-0.1293330734987225,0.7744024547099898,-1.8587364003848417,-1.0416621485581592,-0.310423761162292,1.3379801967895177,0.19750179904220433,-1.4029237653647,0.9396610444756655
124,0.6869409178245119,-0.008622622029272982,0.41460131225714775,0.07485923655117561,-1.5128782366572329,-0.10696848685938926,-1.0276482817129111,-0.48410894184364567,-0.6422309664576631,-0.049317856710165496,-1.2353362862115287,0.44392615515300105,1.2139248784059646,-1.8177034693238852,0.14868076920941597,-1.3840019886326937,-0.31634208700936406,0.5755755731673312,-0.12336898199617989,2.071957367905454,1.152437949973261,-0.1288784615172424,0.7764547618742187,-1.8610603977213898,-1.0448697843416694,-0.3123661211116429,1.336043981368451,0.19704846295751843,-1.4047105734359817,0.9418854273773298
125,0.6890761734897164,-0.008902949645043953,0.41547171135888045,0.07274531926417226,-1.5146574519350502,-0.10727717859465803,-1.0263755576785063,-0.4836356680747215,-0.6452408978879043,-0.04868789066836671,-1.233400090424696,0.443752749507299,1.2143847582560745,-1.8194553441415258,0.1481795358017484,-1.3842398545445953,-0.316453666573615,0.575872861322595,-0.125045277384627,2.072645224961086,1.1518727428755045,-0.1284274738020039,0.778501107352877,-1.8633822938987976,-1.0480747451024401,-0.31430367299974715,1.3341152076598684,0.19659601401091056,-1.406502588584385,0.9441025495458132
126,0.691210943989906,-0.009181638272566805,0.41634102387813476,0.07064277565379994,-1.516436199257841,-0.10758662235198371,-1.0251084719626449,-0.48316462466549054,-0.6482430616273495,-0.0480596923061251,-1.2314662163750016,0.4435805132184784,1.2148428308097725,-1.8211977954144518,0.1476821227221129,-1.3844781790596814,-0.3165665690780566,0.5761685362257044,-0.12671238474039367,2.0733317213710394,1.1513162659036482,-0.12798008695226298,0.7805415070875351,-1.8657020547770065,-1.0512769999287712,-0.3162364330051492,1.332193845092254,0.1961444516617783,-1.4082997206295411,0.946312436291777
127,0.6933452162697687,-0.009458700172289381,0.41720923584902786,0.06855153859246595,-1.5182144529038435,-0.10789680125330374,-1.0238470034823068,-0.482695804213048,-0.6512374507755575,-0.04743326867276383,-1.229534672615169,0.44340943543077094,1.2152990953288174,-1.8229308810248033,0.14718852262020576,-1.3847169504280192,-0.31668076713298826,0.5764626066767053,-0.12837032387427447,2.074016852220785,1.150768484556087,-0.12753627673924364,0.7825759783600049,-1.8680196467524472,-1.0544765178658106,-0.31816441708525467,1.3302798633368944,0.1956937761675046,-1.4101018795186415,0.9485151143560112
128,0.6954789775006294,-0.009734147564340646,0.41807633369654146,0.06647154078364531,-1.5199921876404627,-0.1082076986241887,-1.0225911309206976,-0.48222919922284596,-0.6542240594627148,-0.046808626452481884,-1.2276054673840713,0.4432395053378588,1.2157535514719928,-1.8246546591201123,0.14669872752854632,-1.384956157120933,-0.3167962333755921,0.5767550815253845,-0.1300191156861454,2.074700612964207,1.1502293646410555,-0.12709601820042218,0.7846045396765174,-1.8703350367967901,-1.0576732679725944,-0.32008764101697756,1.3283732322762192,0.19524398850277838,-1.411908975406313,0.9507106117858042
129,0.6976122150609639,-0.010007992623328474,0.41894230422318446,0.06440271480241141,-1.521769378706769,-0.10851929798944615,-1.021340832745361,-0.481764802113009,-0.6572028828082079,-0.04618577197942429,-1.2256786086276588,0.44307071218750943,1.216206199278785,-1.8263691880742128,0.14621272889015743,-1.3851957878259986,-0.3169129404926839,0.57704596966579,-0.13165878211520116,2.0753829994098942,1.149698872235897,-0.12665928572623028,0.7866272106605685,-1.87264819249073,-1.0608672193735034,-0.322006120433251,1.3264739219754804,0.1947950902855112,-1.4137209187272666,0.9528989578204436
130,0.6997449165181564,-0.01028024747359233,0.41980713459630464,0.06234499313326418,-1.5235460017969629,-0.10883158306895163,-1.0200960872252642,-0.4813026052185133,-0.6601739168812895,-0.04556471125193211,-1.2237541040186701,0.44290304528577995,1.2166570391538833,-1.8280745264506861,0.1457305175847269,-1.385435831442257,-0.31703086124158353,0.5773352800310504,-0.1332893460928221,2.0760640077080823,1.1491769736501096,-0.1262260531397467,0.7886440119537983,-1.8749590820532265,-1.0640583413045845,-0.32391987085574203,1.3245819026574897,0.19434708370884698,-1.4155376202622727,0.955080182785183
131,0.7018770696114175,-0.010550924184877115,0.42067081233601195,0.06029830820542883,-1.5253220330447457,-0.1091445377736921,-1.0188568724469202,-0.48084260079523394,-0.6631371586637073,-0.04494544994602247,-1.2218319609752009,0.4427364940008236,1.217106071852458,-1.8297707329686759,0.14525208395335001,-1.3856762770756335,-0.3171499684692431,0.5776230215884729,-0.13491083149790103,2.076743634338206,1.148663635391868,-0.1257962937699069,0.7906549651243151,-1.8772676743665884,-1.067246603155157,-0.32582890772408585,1.3226971446801465,0.19389997147879776,-1.4173589911979838,0.9572543179930557
132,0.7040086622357923,-0.010820034768396897,0.4215333253036787,0.05826259242578744,-1.5270974490085383,-0.1094581462020077,-1.017623166329603,-0.4803847810238616,-0.6660926060141764,-0.044327993428145994,-1.219912186678197,0.4425710477663293,1.2175532984661628,-1.8314578664709174,0.14477741782194606,-1.38591711403455,-0.31727023512976316,0.5779092033349078,-0.136523263114471,2.0774218760970307,1.1481588241377392,-0.12536998051872145,0.7926600925819147,-1.8795739389977568,-1.0704319745050872,-0.32773324642192975,1.3208196185165177,0.19345375675707277,-1.4191849431810777,0.959421395653962
133,0.7061396824271873,-0.011087591173259467,0.42239466169098355,0.05623777820959501,-1.5288722266574917,-0.10977239263601887,-1.0163949466397113,-0.4799291380136941,-0.6690402576345804,-0.043712346767266014,-1.217994788087939,0.4424066960846214,1.2179987204098242,-1.8331359858938365,0.14430650852343646,-1.3861583318257176,-0.3173916343004156,0.5781938342923615,-0.1381266665914857,2.078098730087328,1.1476625067053352,-0.12494708592295806,0.7946594174996878,-1.8818778462161194,-1.0736144251580875,-0.3296329023000558,1.3189492947372432,0.19300844310870013,-1.421015388367167,0.9615814487904958
134,0.7082701183483531,-0.011353605283224783,0.4232548100094683,0.0542237980091221,-1.5306463433582413,-0.11008726153822652,-1.0151721910043323,-0.47947566380630435,-0.6719801130377951,-0.043098514746301185,-1.2160797719595764,0.44224342852944737,1.2184423394087693,-1.8348051502395837,0.1438393449187657,-1.3863999201500958,-0.31751413919628596,0.5784769235038456,-0.1397210684046148,2.078774193707061,1.1471746500286633,-0.12452758221070981,0.7966529637415417,-1.8841793670081601,-1.0767939251713712,-0.3315278906968298,1.3170861439950614,0.19256403445406936,-1.4228502394648845,0.9637345111600157
135,0.7103999582757613,-0.01161808891377233,0.42411375908057797,0.052220584340356965,-1.5324197768623562,-0.11040273754827365,-1.0139548769240514,-0.4790243503790894,-0.6749121725170364,-0.042486501872970685,-1.2141671448577702,0.4420812347484752,1.2188841574867606,-1.836465418549874,0.14337591541684094,-1.386641868899012,-0.31763772318363676,0.5787584800294483,-0.14130649581992466,2.079448264639053,1.1466952211359505,-0.12411144135324022,0.798640755795199,-1.8864784730892243,-1.0799704448819651,-0.33341822695620527,1.3152301370112682,0.19212053502505066,-1.424689409775521,0.9658806171825014
136,0.7125291905873203,-0.011881053809454202,0.42497149802615686,0.05022806980789152,-1.534192505294438,-0.11071880547985773,-1.0127429817850546,-0.478575189648703,-0.6778364371166388,-0.04187631239007859,-1.2122569131704948,0.4419201044655253,1.2193241769544936,-1.838116849881519,0.1429162079934614,-1.3868841681504271,-0.3177623597920888,0.5790385129426148,-0.1428829768593246,2.0801209408411085,1.146224187129741,-0.12369863511246793,0.8006228187102657,-1.8887751369126586,-1.0831439549299602,-0.3353039264434941,1.3133812445639326,0.19167794932487253,-1.426532813228568,0.9680198018737661
137,0.7146578037508755,-0.012142511641512433,0.4258280162593744,0.04824618712810742,-1.5359645071408297,-0.11103545031778386,-1.011536482870566,-0.4781281734743755,-0.6807529086041785,-0.0412679502852719,-1.2103490831220525,0.4417600274825559,1.2197624003986296,-1.8397595032835363,0.14246021020930374,-1.38712680816534,-0.3178880227257082,0.5793170313266266,-0.1444505402676664,2.080792220536564,1.145761515169074,-0.12328913508442667,0.8025991780409928,-1.8910693316765637,-1.0863144262789608,-0.3371850045590975,1.3115394374777087,0.19123628209146257,-1.4283803644134903,0.9701521007836328
138,0.7167857863134459,-0.012402474005740679,0.42668330347605604,0.046274869150771045,-1.5377357612388942,-0.1113526572151491,-1.0103353573716582,-0.47768329366112444,-0.6836615894438591,-0.0406614193003043,-1.2084436607853444,0.44160099368142164,1.220198830671328,-1.8413934377757384,0.1420079092270248,-1.3873697793843212,-0.31801468587308174,0.5795940442712674,-0.14600921548139245,2.08146210220524,1.1453071724535708,-0.12288291273901158,0.8045698597933787,-1.8933610313283802,-1.0894818302339695,-0.3390614767503773,1.3097046866150999,0.19079553826397885,-1.430231978608025,0.9722775499387032
139,0.7189131268911508,-0.012660952420571773,0.427537349646397,0.04431404887913902,-1.5395062467668275,-0.11167041149064925,-1.009139582397474,-0.47724054196285914,-0.6865624827710854,-0.040056722939836004,-1.2065406520934434,0.44144299302542334,1.2206334708802495,-1.8430187123287005,0.14155929182753957,-1.3876130724241664,-0.31814232331645614,0.5798695608696649,-0.1475590325986355,2.0821305845747755,1.1448611262092663,-0.12247993945629962,0.8065348903762913,-1.8956502105675102,-1.0926461384569297,-0.3409333585218325,1.3078769628690363,0.19035572295227912,-1.4320875718032886,0.9743961857893823
140,0.7210398141597828,-0.012917958325374075,0.42839014500703615,0.04236365948866942,-1.5412759432339702,-0.1119886986259999,-1.0079491349848928,-0.4767999100853817,-0.6894555923681535,-0.03945386447979787,-1.20464006285051,0.4412860155606647,1.2210663243789999,-1.844635385845021,0.1411143444255278,-1.387856678074666,-0.3182709093400124,0.5801435902153006,-0.14910002235067898,2.0827976666123167,1.1444233436760394,-0.1220801865597107,0.8084942965563066,-1.897936844846159,-1.0958073229801277,-0.34280066544373344,1.3060562371566435,0.1899168414090945,-1.4339470607259435,0.9765080451608393
141,0.7231658368459868,-0.013173503078940762,0.4292416800534707,0.0404236343444275,-1.54304483047159,-0.11230750426346396,-1.0067639921076768,-0.476361389689289,-0.6923409226409913,-0.03885284697534631,-1.2027418987420888,0.4411300514172316,1.2214973947579921,-1.8462435171417904,0.14067305308421935,-1.388100587295477,-0.31840041843733985,0.5804161413991761,-0.15063221607469338,2.0834633475165463,1.1439937920965042,-0.1216836253462562,0.8104481054159858,-1.9002209103685708,-1.0989653562176411,-0.3446634131593536,1.3042424804140889,0.18947889900469195,-1.4358103628576648,0.9786131652076161
142,0.7252911837190086,-0.013427597958157384,0.4300919455327916,0.038493907017268986,-1.5448128886241008,-0.11262681420347867,-1.0055841306851234,-0.47592497239277753,-0.6952184785968896,-0.038253673268433694,-1.2008461653448228,0.44097509081020775,1.2219266858356987,-1.8478431649341889,0.14023540352950456,-1.388344791213098,-0.31853082531817073,0.580687223507129,-0.1521556456876702,2.0841276267100324,1.1435724387062338,-0.12129022711410278,0.8123963443153335,-1.9025023840888131,-1.1021202109750075,-0.346521617390928,1.3024356635923986,0.1890419012038257,-1.4376773964521241,0.9807115833716075
143,0.7274158435829766,-0.01368025415683412,0.4309409324367228,0.03657441129887858,-1.546580098140694,-0.1129466144023752,-1.004409527590257,-0.47549064977435507,-0.6980882658231623,-0.037656345995017645,-1.1989528681356187,0.44082112404053975,1.2223542016502724,-1.8494343878201445,0.13980138116341329,-1.3885892811179343,-0.31866210491443125,0.5809568456172899,-0.15367034366148005,2.084790503831875,1.1431592507252024,-0.12089996318766275,0.8143390408561968,-1.9047812437072575,-1.105271860457271,-0.3483752939444569,1.3006357576541523,0.18860585354479364,-1.4395480805496914,0.9828033373431666
144,0.7295398052696844,-0.013931482784690096,0.43178863199494627,0.034665081215736304,-1.5483464397673563,-0.11326689097018489,-1.0032401596575817,-0.4750584133754612,-0.7009502904666863,-0.037060867591930745,-1.1970620125002953,0.44066814149576333,1.2227799464515137,-1.8510172442659778,0.1393709710770026,-1.388834048461452,-0.31879423238566057,0.5812250167976721,-0.15517634299898664,2.0854519787306387,1.1427541953503366,-0.12051280494040588,0.8162762228493843,-1.9070574676658876,-1.108420278275554,-0.35022445871346364,1.2988427335709656,0.18817076162042828,-1.4414223349900446,0.9848884650250994
145,0.7316630576318435,-0.014181294866478178,0.4326350356686979,0.032765851042079304,-1.5501118945392478,-0.11358763016852598,-1.002076003690426,-0.47462825470300035,-0.7038045592142684,-0.036467240303431035,-1.1951736037417444,0.4405161336506023,1.2232039246931647,-1.8525917925929762,0.13894415806269111,-1.3890790848534131,-0.31892718312384594,0.5814917461038884,-0.15667367721115327,2.086112051457556,1.1423572397490782,-0.12012872381557313,0.8182079182843001,-1.909331035142557,-1.1115654384522848,-0.3520691276818074,1.2970565623216803,0.187736631060865,-1.4433000804228553,0.9869670044993338
146,0.7337855895367775,-0.014429701341239382,0.433480135144619,0.03087665531192266,-1.5518764437734203,-0.11390881840856588,-1.0009170364678968,-0.47420016523179004,-0.7066510792737929,-0.035875466187452354,-1.1932876470876315,0.4403650910674497,1.2236261410255125,-1.8541580909648347,0.13852092662607424,-1.3893243820591874,-0.31906093275771846,0.5817570425769866,-0.15816238029508262,2.0867707222599785,1.1419683510538654,-0.11974769134495881,0.820134155300903,-1.911601926044311,-1.1147073154252125,-0.3539093169256423,1.2952772148911897,0.18730346751794252,-1.4451812383167124,0.9890389939960645
147,0.735907389860532,-0.014676713061676972,0.4343239223288498,0.02899742883019827,-1.5536400690618537,-0.1142304422490536,-0.9997632347514694,-0.4737741364069267,-0.7094898583561061,-0.03528554712157222,-1.1914041476976631,0.44021500439674116,1.22404660028828,-1.85571619737591,0.13810126099725362,-1.3895699319971362,-0.3191954571565502,0.5820209152413983,-0.1596424867129348,2.087427991575074,1.1415874963574515,-0.11936967916591538,0.822054962163815,-1.9138701209998714,-1.1178458840503147,-0.35574504261460765,1.2935046622698296,0.18687127665110181,-1.4470657309664299,0.9911044718651882
148,0.7380284474823734,-0.014922340793640946,0.4351663893413509,0.02712810668306717,-1.5554027522647922,-0.11455248839441778,-0.9986145752912321,-0.4733501596460721,-0.7123209046575987,-0.03469748480871388,-1.1895231106704447,0.4400658643772293,1.2244653075037926,-1.8572661696402362,0.1376851451417104,-1.389815726736065,-0.31933073243349064,0.5822833731029959,-0.1611140313716727,2.088083860023747,1.1412146427089815,-0.11899465903672277,0.8239703672384178,-1.9161356013513837,-1.1209811196037074,-0.3575763210123274,1.2917388754532755,0.18644006411465963,-1.4489534814988727,0.993163476549858
149,0.7401487512796556,-0.015166595215714392,0.43600752851044183,0.02526862424745699,-1.5571644755043605,-0.1148749436929262,-0.9974710348318035,-0.4729282263416626,-0.7151442268434445,-0.034111280782598084,-1.1876445410499514,0.4399176618361665,1.2248822678704028,-1.8588080653812549,0.13727256277075064,-1.3900617584927377,-0.319466734948478,0.5825444251472501,-0.16257704960358665,2.088738328404776,1.1408497571107563,-0.1186226028504539,0.8258803989687848,-1.918398349145507,-1.1241129977826523,-0.35940316847628917,1.2899798254428876,0.1860098355463429,-1.4508444138774277,0.9952160465619996
150,0.7422682901230312,-0.015409486918893768,0.4368473323675442,0.023418917199872793,-1.558925221158446,-0.11519779513490241,-0.9963325901179438,-0.47250832786304436,-0.7179598340314641,-0.03352693641295904,-1.185768443831634,0.43977038768940435,1.2252974867561583,-1.8603419420222143,0.136863497351549,-1.3903080196294524,-0.3196034413107573,0.5828040803374845,-0.16403157714755429,2.089391397689153,1.14049280651562,-0.11825348264745739,0.8277850858573131,-1.9206583471239325,-1.1272414947057494,-0.3612256014571688,1.2882274832464549,0.18558059655697895,-1.452738452905233,0.9972622204596425
151,0.7443870528719877,-0.015651026406355774,0.4376857936421186,0.021578921524526538,-1.5606849718548261,-0.11552102985099609,-0.9951992178998739,-0.47209045555853635,-0.7207677357765773,-0.032944452910538234,-1.183894823968179,0.43962403294141605,1.2257109696927013,-1.8618678567771967,0.136457932116815,-1.3905545026516721,-0.3197408283810358,0.5830623476132217,-0.16547765013099439,2.0900430690146186,1.1401437578249103,-0.11788727062656955,0.8296844564459229,-1.9229155787133974,-1.1303665869123958,-0.3630436364976601,1.2864818198792876,0.1851523527212445,-1.4546355242272744,0.9993020368259316
152,0.7465050283706902,-0.01589122409330404,0.43852290525678617,0.01974857352082725,-1.562443710465534,-0.11584463511050336,-0.9940708949383197,-0.4716746007574234,-0.7235679420558144,-0.032363831331868625,-1.182023686374942,0.43947858868524853,1.2261227223693851,-1.8633858666427345,0.13605585007410428,-1.3908012002057106,-0.31987887327330294,0.5833192358886164,-0.16691530505247615,2.0906933436803774,1.1398025778869172,-0.11752393915515875,0.8315785392987093,-1.9251700280152642,-1.133488251361585,-0.3648572902308637,1.284742806365619,0.18472510956938462,-1.4565355543314438,1.0013355342496921
153,0.748622205444112,-0.016130090306889337,0.43935866032262366,0.0179278098102714,-1.564201420101441,-0.11616859831973418,-0.9929475980092969,-0.47126075477188234,-0.7263604632538591,-0.03178507258386126,-1.1801550359350719,0.4393340461024096,1.226532750627598,-1.8648960283899791,0.1356572340147962,-1.3910481050764658,-0.3200175533563413,0.583574754050971,-0.16834457876494824,2.0913422231419894,1.1394692334957985,-0.11716346077809756,0.8334673629859342,-1.9274216797947246,-1.1366064654301158,-0.36666657937828706,1.2830104137402754,0.184298872579819,-1.4584384705486524,1.0033627513074352
154,0.7507385728944375,-0.016367635286197498,0.440193052134625,0.016116567342770338,-1.5659580841070477,-0.11649290702042357,-0.9918293039086489,-0.47084890889884273,-0.7291453101490926,-0.03120817742820524,-1.1782888775043419,0.4391903964626964,1.2269410604552822,-1.8663983985573904,0.13526206652275682,-1.3912952101852027,-0.3201568462549515,0.5838289109593295,-0.1697655084595545,2.091989709006426,1.1391436913909077,-0.11680580822575042,0.8353509560692585,-1.9296705194696824,-1.1397212069102727,-0.36847152074749895,1.2812846130505797,0.1838736471725602,-1.460344201052082,1.0053837265466952
155,0.7528541194977217,-0.016603869182299686,0.4410260741673194,0.014314783402449259,-1.5677136860554721,-0.11681754888818412,-0.9907159894563513,-0.47043905442178435,-0.7319224939001177,-0.03063314648559144,-1.1764252159157031,0.4390476311239693,1.227347657981637,-1.867893033443912,0.13487032998270562,-1.3915425085873805,-0.32029672985091345,0.5840817154431465,-0.17117813165000503,2.092635803027284,1.1388259182564908,-0.116450954421058,0.8372293470881199,-1.9319165330993684,-1.1428324540070338,-0.37027213122948255,1.2795653753584557,0.18344943870337418,-1.4622526748556484,1.0073984984705988
156,0.7549688340007925,-0.016838802058359997,0.4418577200705392,0.01252239561294992,-1.5694682097436206,-0.11714251173099711,-0.9896076315005969,-0.4700311826124741,-0.7346920260327361,-0.030059980239769708,-1.1745640559835746,0.4389057415318761,1.227752549471999,-1.869379989102607,0.1344820065883028,-1.3917899934705211,-0.3204371822837043,0.5843331763010264,-0.17258248615747432,2.0932805071001477,1.138515880721714,-0.11609887248579281,0.8391025645471699,-1.9341597073727317,-1.1459401853348616,-0.3720684277957239,1.277852671742704,0.18302625245861895,-1.464163821811752,1.0094071055235783
157,0.7570827051183812,-0.017072443889795827,0.44268798366532947,0.01073934194226726,-1.571221639187535,-0.11746778348774006,-0.9885042069216701,-0.4696252847326434,-0.7374539184273596,-0.029488679041448508,-1.172705402507884,0.4387647192195317,1.2281557413228887,-1.8708593213347222,0.13409707834997278,-1.3920376581521199,-0.32057818195099164,0.5845833022995318,-0.17397861009599888,2.0939238232580957,1.1382135453609865,-0.11574953574605489,0.8409706369046905,-1.936400029596649,-1.1490443799141214,-0.3738604274950716,1.2761464733014238,0.18260409365070226,-1.4660775726083772,1.01140958607814
158,0.7591957215304699,-0.01730480456448669,0.44351685893999315,0.008965560707148124,-1.5729739586179043,-0.1177933522267483,-0.9874056926356231,-0.46922135203560883,-0.7402081833068329,-0.028919243112045512,-1.1708492602778702,0.43862455580715526,1.228557240057215,-1.8723310856841604,0.1337155271024782,-1.3922854960775926,-0.3207197075089192,0.5848321021720538,-0.17536654185835027,2.094565753667341,1.1379188786945462,-0.11540291773707109,0.8428335925619163,-1.9386374876839914,-1.1521450171671739,-0.37564814745039876,1.274446751154556,0.18218296741410445,-1.467993858765601,1.0134059784226146
159,0.7613078718798443,-0.017535893883027585,0.44434434004626466,0.0072009905770784996,-1.5747251524757317,-0.1181192061444088,-0.9863120655977645,-0.4688193757678372,-0.7429548332246494,-0.02835167254729704,-1.1689956340756613,0.4384852430016706,1.2289570523196298,-1.8737953374323317,0.1333373345122583,-1.3925335008182604,-0.3208617378722018,0.5850795846177459,-0.17674632010235936,2.0952063006230044,1.1376318471892783,-0.11505899220735648,0.8446914598531937,-1.9408720701415827,-1.1552420769141805,-0.37743160485509697,1.272753476446524,0.18176287880191624,-1.469912612631569,1.0153963207498122
160,0.7634191447698394,-0.017765721559023225,0.4451704212956061,0.0054455705778839215,-1.5764752054081517,-0.11844533356378423,-0.9852233028059685,-0.46841934717045763,-0.7456938810535425,-0.027785967320733733,-1.1671445286796378,0.4383467725962717,1.2293551848720283,-1.8752521315933663,0.1329624820845438,-1.392781666069369,-0.32100425221404316,0.5853257583005149,-0.1781179837376707,2.095845466545007,1.137352417259741,-0.1147177331222913,0.8465442670369157,-1.9431037660580812,-1.1583355393686585,-0.37921081696942804,1.2710666203489558,0.18134383278284605,-1.4718337673779869,1.0173806511465207
161,0.7655295287622701,-0.01799429721941976,0.4459950971556205,0.0036992400949662045,-1.5782241022643848,-0.11877172293326571,-0.9841393813038144,-0.46802125748072115,-0.7484253399744355,-0.0272221272870294,-1.165295948867592,0.4382091364699573,1.2297516445891827,-1.876701522909663,0.13259095117026037,-1.3930299856481405,-0.3211472299658916,0.5855706318480686,-0.1794815719129066,2.0964832539740845,1.1370805552693712,-0.11437911466716362,0.848392042287171,-1.9453325650918134,-1.1614253851328193,-0.3809858011167581,1.2693861540634677,0.18092583423865427,-1.473757256995175,1.0193590075837808
162,0.767639012375535,-0.01822163040487084,0.44681836224657717,0.001961938876198132,-1.579971828091828,-0.1190983628252525,-0.983060278183565,-0.467625097933411,-0.7511492234657335,-0.026660152185229446,-1.1634498994196931,0.43807232658703654,1.2301464384545084,-1.8781435658477585,0.13222272297273094,-1.3932784534918572,-0.3212906508170456,0.5858142138510155,-0.18083712400322177,2.0971196655679156,1.1368162275318527,-0.11404311124972273,0.8502348136860579,-1.9475584574585847,-1.1645115951927207,-0.3827565746796953,1.2677120488244933,0.18050888796197645,-1.475683016286729,1.0213314279078862
163,0.7697475840828863,-0.01844773057013515,0.4476402113380427,0.00023360703449640686,-1.5817183681322695,-0.11942524193485733,-0.9819859705889915,-0.46723085976220385,-0.7538655452929443,-0.02610004164186504,-1.1616063851212668,0.43793633499660956,1.2305395735559537,-1.879578314594496,0.13185777855418743,-1.3935270636559756,-0.32143449471412067,0.5860565128620164,-0.18218467959823156,2.0977547040973543,1.1365594003126194,-0.11370969750228568,0.8520726092166094,-1.9497814339194925,-1.1675941509132615,-0.38452315509615137,1.266044275902144,0.18009299865449935,-1.4776109808638287,1.0232979498320514
164,0.7718552323108567,-0.01867260708450268,0.4484606393456149,-0.0014858149499081578,-1.5834637078182245,-0.11975234907863593,-0.9809164357180524,-0.4668385342009845,-0.7565743194986122,-0.025541795173958572,-1.1597654107653992,0.4378011538320241,1.2309310570820076,-1.8810058230534779,0.131496098842101,-1.3937758103122704,-0.32157874186038915,0.5862975373949838,-0.1835242784902965,2.0983883724427717,1.1363100398304813,-0.1133788482834355,0.8539054567562872,-1.9520014857687615,-1.1706730340330411,-0.3862855598553446,1.2643828066050884,0.17967817092545768,-1.4795410871392274,1.0252586109287027
165,0.773961945437835,-0.018896269232247298,0.4492796413277536,-0.0031963862274853776,-1.585207832769386,-0.12007967319333958,-0.9798516508254338,-0.46644811248511475,-0.759275560392555,-0.0249854121919258,-1.1579269811553716,0.4376667753103115,1.2313208963178222,-1.8824261448417856,0.1311376646353395,-1.394024687747005,-0.32172337271500256,0.5865372959243277,-0.1848559606631485,2.0990206735904926,1.136068112259354,-0.1130505386793465,0.8557333840709995,-1.95421860482162,-1.173748226659112,-0.3880438064937606,1.262727612283438,0.17926440929042164,-1.4814732723209592,1.0272134486223456
166,0.7760677117927842,-0.019118726213103277,0.45009721248270507,-0.004898165577688648,-1.586950728789183,-0.12040720333468959,-0.978791593224957,-0.4660595858526589,-0.7619692825423882,-0.024430892002379606,-1.1560911011069352,0.4375331917316035,1.231709098641443,-1.8838393332869519,0.13078245661016008,-1.39427369035913,-0.3218683679921056,0.586775796884246,-0.18617976628084387,2.0996516106293317,1.1358335837300744,-0.11272474400476964,0.8575564188096069,-1.956432783402235,-1.1768197112616396,-0.38979791259108576,1.2610786643316305,0.17885171817034767,-1.483407474405793,1.029162500182966
